-9.553979840330830697e-01,1.420996810463147353e-01,-2.084805656016338049e-01,3.744172473940887008e-02,-2.870201259962053622e-02,-5.326955785193324133e-02,8.089107787731737373e-03,-4.395590967959640133e-02,2.456389230627476633e-02,-4.326293706348627310e-02,6.610646029372314880e-02,-3.111037241625577016e-02,8.914282721520481317e-03,-3.157055451725369194e-02,2.468409409744859451e-02,-1.130913306010872081e-02,2.787080971553886066e-02,-3.314295028104857765e-02,1.201897102068326742e-02,1.333467977965461376e-02,-1.383125978535833418e-02,-2.209972542405580151e-02,-1.548403166876454080e-02,4.683180729990222245e-03,1.006381165437786503e-02,1.850594274938121859e-03,3.391443555999418269e-02,-1.209343411915023668e-02,-2.706839056070466792e-03,-1.515483600194973864e-02,-2.141997439289339972e-02,-2.268586588831314824e-03,-5.844368419277743559e-03,1.500842515932366769e-04,1.746928099863755135e-02,5.629493505113774762e-03,1.044269786903333393e-02,6.832122206869854081e-03,4.272150646975736606e-03,1.070439514690482881e-02,5.933564881557653811e-03,5.765275467430622464e-04,1.231408297016093603e-03,3.055031600030450045e-02,0.000000000000000000e+00,0.000000000000000000e+00,0.000000000000000000e+00,0.000000000000000000e+00,0.000000000000000000e+00,0.000000000000000000e+00
-1.949198007409339573e-01,-9.163853736652528559e-01,1.885491143527195934e-01,-1.328214813780912995e-01,-1.220211653595906498e-01,1.393626783561115745e-01,4.539388981272044626e-03,-8.833693300878547872e-03,4.938922181728214872e-02,-7.350157054333573969e-02,-1.134953683254352197e-01,1.483040273719052338e-02,8.766825557932182017e-03,5.062025387618498962e-02,1.586900337516844450e-02,-9.942493165979865433e-03,-2.351004016837235366e-02,9.723659205042395337e-03,-7.608399372571912622e-03,8.982098780239144986e-04,-1.407892503064464562e-02,3.223282186483135414e-02,1.797081473139597319e-02,-6.180939582985513214e-02,-2.352441768760422242e-02,-1.329987425480291460e-02,-1.911999028737779160e-02,-1.268575712548720980e-02,1.912651592992764202e-02,1.983104049100675725e-02,-6.247842960309196725e-03,-3.658025126484732922e-03,1.582971625726875900e-02,4.327875009724033335e-03,-1.487058642873102798e-02,-3.443309617818714891e-03,1.535338285253186330e-02,-2.865166195378038988e-03,-4.156885064129100388e-03,-1.189459513807944457e-03,-1.871191333004537313e-02,-9.365224811722073356e-03,7.456649826363679831e-03,-5.424864990506095275e-03,-5.237275050705625899e-03,-1.651264745258165800e-02,-1.239458128078544351e-02,-1.304805774702602064e-04,-1.159907465820048149e-04,-3.896751368388454671e-03
9.901677751908444236e-02,-2.752103387710314042e-01,-4.898601474010664258e-01,7.617718250018604698e-01,3.450183136379125770e-03,-5.657398568626065272e-02,-6.503841422674992712e-02,-4.738502642490791117e-02,-1.419007258907531710e-01,1.215303955048856049e-01,4.923594354166171971e-02,7.775326255494489913e-02,7.364240361745044705e-02,-2.259162033582085005e-02,8.473133381736219771e-03,2.850983134420094489e-02,2.908350926191854979e-02,-2.798470916474551928e-02,-8.611084148113339054e-03,3.942173748642575914e-02,1.498622210579988318e-02,-9.573764145271912440e-02,1.041374438892979370e-02,7.547340922232068094e-02,-5.143438501320318768e-03,-5.512425573251061861e-02,2.452143044219923240e-02,2.710529844044546471e-02,1.522103587046105475e-02,3.755260744088711328e-02,7.471075230626247898e-03,-3.324959112744217335e-03,-1.240684968835224083e-02,-1.908650278783598914e-02,5.002524287295270766e-02,-1.207243061226013006e-02,-7.952403615589055674e-03,-2.344527916297058090e-02,1.460435408916779115e-02,-6.550006821263464063e-03,1.139192443241093811e-03,8.964954935473955916e-03,-2.419891158514749646e-02,2.566425028958338461e-02,3.392853764923491056e-02,2.641897690083224934e-02,2.446176452057105197e-02,2.998203130373428265e-03,-1.261654652309566462e-03,-2.241040827779372177e-02
1.159232234909058357e-01,-1.446360086526559119e-01,-6.876197410276057020e-01,-4.911282422117810853e-01,2.532896091901588598e-01,-2.291101629031372933e-01,-3.400590797661608156e-02,1.978483154344253536e-01,-6.542091943946688054e-03,-2.182221974448268487e-01,-2.602317356956661276e-02,4.852817954851439131e-02,3.645133050705710864e-02,-5.854218788564185399e-02,-2.286391169379196897e-02,6.676855043630784692e-02,-5.533236447887733556e-02,-4.458027081070329439e-02,5.995985603258181806e-02,3.386260161430746513e-02,1.599167837806975134e-03,-2.933083539437891796e-02,-5.870244664409161872e-02,-7.187340187234361744e-02,1.058752916992895116e-02,-2.946217987380436373e-02,-1.486029173440646389e-02,-5.579772773862645696e-02,9.940582188234436609e-03,-1.053400662736797555e-02,-1.715669924077786734e-02,-1.928243463883732439e-02,-3.891690356925971150e-03,-9.764761751666253820e-03,-3.048415633190265650e-02,1.022020741100582164e-02,1.863759783206810072e-02,9.635943302072782699e-03,-2.749137132149096288e-02,-1.176187635918885671e-02,1.590716801690677043e-02,3.120015204956282789e-02,-5.277438235299334451e-03,2.389257639798383903e-02,8.748469465589612040e-03,-7.377689806151901952e-03,2.196666777924806066e-02,-9.157290588615144694e-03,2.344729379024704588e-02,9.394014937257064504e-04
-7.235622372774543065e-02,-1.104823346217761598e-01,2.733824318443101031e-01,-2.102084931461895012e-02,5.831414983882909908e-01,-4.124033654954586403e-01,2.190172871356708406e-01,-1.551375099843735894e-01,-1.760928804622170218e-01,2.248681464870213031e-01,8.608035740721951823e-02,-5.546882279957166678e-02,3.104610597337481015e-01,4.479621882280919454e-02,-6.683322862172094703e-02,7.192893014654530570e-02,-4.843523844885171126e-02,-7.147793511870201288e-02,6.345045315725397761e-03,-4.984374228074003182e-02,1.250080835218571051e-01,-8.303228865885387000e-02,-9.154416034246001810e-02,1.179956924288564080e-01,-2.450040974083923101e-02,3.389641385433277837e-03,-7.444635313098138529e-02,9.648041530601551841e-03,9.784951205236407101e-02,8.733899239573963968e-02,1.841007625393444036e-02,-3.714710801332707368e-02,-5.119845609066829561e-02,-1.285284541522265303e-02,7.481481286046391677e-02,-1.279538897952299525e-02,2.664384862575712790e-02,-6.109144989932002029e-02,-1.351772296442965010e-02,-7.442708449213736310e-02,-1.657284248262926377e-02,1.799155168448794695e-02,-4.167752603295399316e-02,4.989339116837243626e-03,8.103719824691275886e-03,3.142861345507449999e-02,5.521177191142156299e-02,5.914118806458760341e-02,-6.923637374745526818e-02,-5.675082878689670374e-02
-2.076486472262046093e-03,3.527193616451133884e-02,-1.528851928831219120e-01,-1.301339595062260823e-01,3.419381086996328145e-01,6.191079395761449611e-01,3.521264884496305703e-03,-5.093183511021951437e-01,-1.553076216839035517e-01,8.976407361446570032e-02,4.405265088208404345e-03,1.920333945419963606e-01,1.808904533223119546e-02,7.669558398648475273e-03,-1.206606101836072142e-01,-3.351041305503621448e-02,5.504746310555063554e-02,8.059216957553860805e-02,4.376701873950726573e-02,9.403595743353190817e-02,-4.918397675694601706e-02,-4.196427437232788660e-02,7.825854083996647281e-02,-1.487292381068020530e-01,-2.434238496489449233e-02,-1.804125855862328404e-02,4.276844448546257560e-03,6.355377706648707159e-04,1.290990104247438132e-02,-3.645180695022063461e-02,-6.407438754416294735e-03,1.866811205804008722e-02,4.275356661231695388e-03,-5.018697811723900337e-02,1.009498867362575852e-01,4.101762340718084071e-03,5.050810371446371599e-02,7.405781594802729462e-02,-5.192510093064189175e-03,-1.215417958553315775e-02,8.850559761501907569e-03,-4.702242784216303928e-02,2.221274645444556994e-02,-3.467733398590391869e-02,-8.419643745106840382e-02,4.964515950101848485e-02,6.470778656091502601e-02,4.480447737628309723e-02,-5.548230654040239851e-02,3.990661329090131743e-02
-5.424234892487409671e-02,-3.410017752524663326e-02,1.041119116832509572e-01,2.007773534866961196e-01,5.781375250004813227e-01,2.331477622657822657e-01,-6.301686851467884487e-02,4.203527924956041439e-01,1.354185353516750012e-01,-1.735918477457096820e-01,1.230835572704294112e-01,4.946167698776481741e-02,-3.024430902908161189e-01,1.532763740554678733e-01,1.501198128480304150e-01,-1.360312463839111197e-02,-6.007446445219345732e-02,-9.803393850324290670e-03,-3.309479418492273367e-02,-6.835861077663771268e-02,1.233963324124590089e-01,5.755230453510402910e-02,1.367810724430651437e-01,7.416693695578122081e-02,7.775685993832194554e-02,1.561890883850173273e-01,1.403130634463730653e-01,-6.968885023695818581e-02,-8.191918320179902846e-02,-1.004122988170538799e-01,-1.423160789812086269e-02,-2.004103249762552441e-02,2.987425244121829498e-02,1.124834438215324001e-02,-4.963636724421149893e-02,5.247221987847599384e-02,-2.966352525056409339e-02,4.231090397365735306e-02,-1.895970192853529621e-02,3.264354081666644147e-02,-1.521181624900602020e-02,4.576351071732230602e-04,3.046979777666709507e-02,2.102838547607471797e-02,3.049217321362868161e-02,-6.084858020251469879e-02,-9.780388681273524676e-02,-8.369709709052958191e-03,3.588394765662207553e-02,8.186225509650478516e-02
-5.541827910125220885e-02,-6.863927774535692229e-03,1.641772502756433105e-01,1.922635052870406286e-02,7.761772645990061559e-02,-2.001778217967671303e-01,-4.713972015725074183e-01,-3.709739966115954690e-02,-3.737498044251529872e-01,-2.364036239621407909e-01,-5.371243173678597049e-02,2.869225396712853371e-01,-5.006335197605155107e-02,-1.177178966733791188e-01,-2.470428659497341806e-01,4.446958578855727227e-03,1.789259238521556106e-01,6.135181508846319215e-02,-8.875758740673174441e-02,-9.564405180719097455e-02,-1.170941426696362198e-01,3.197982642300658401e-02,3.932220887848007079e-02,5.205027266322326263e-04,6.888520072605525124e-02,5.501821159040477111e-02,-2.260550410120618081e-01,1.435894037799037015e-01,-1.011505943220846609e-01,-1.034588489337144451e-01,5.676042482747740980e-02,-7.529732350909149052e-02,1.047316626260787753e-01,3.312973348520852675e-03,-1.159692917652161703e-01,-1.181688600343888326e-02,-9.310601071080777669e-02,-2.718000979573045872e-04,6.842526785733440975e-02,-1.071932720630130315e-02,3.926834241436916173e-02,-2.982502616427440932e-03,8.569263837018982477e-02,-1.147436137028642889e-02,1.555817233269448652e-01,1.434400964513493915e-01,2.941372741024095294e-02,-7.189959253850893017e-02,1.196188903820607358e-01,1.547280991089979574e-01
6.020527442087597776e-03,-4.927052785170555477e-02,-1.066359438086378758e-01,-5.635644898821774718e-02,8.645256918545435321e-02,2.086787793669686586e-02,-4.301952813984236679e-01,-1.038949680957040322e-01,4.598243952665248546e-01,4.261854281456157745e-01,1.544335510193403649e-01,-1.814839829728071008e-01,1.599688272355156704e-01,-1.198406911144342391e-02,-6.934617682534108263e-02,4.977451605574279014e-03,-1.054158732108621543e-01,-1.287400751465187509e-01,-1.749736633564202282e-01,-1.925080224331165990e-01,-7.985800647153931675e-02,2.083266036312000913e-01,-6.873574360363982061e-03,8.131244341994289804e-02,-9.127835894507524417e-03,3.407235101953982187e-02,-1.200219644284243048e-01,4.634420570036645176e-02,-4.415603211335511480e-02,-1.582105817309211460e-01,1.425733694622956238e-02,-1.649741879514352375e-02,2.661662030748628005e-02,6.826244049948606424e-03,-1.222198664956008762e-01,3.430809129479812924e-02,4.400278480069041986e-02,-3.116153515301971211e-03,-4.092317397361484171e-02,5.662594589703377757e-02,2.352151689832611414e-02,-6.625005624862551068e-02,1.381228839006538867e-01,-1.273642534784401870e-01,-2.838484071223040459e-02,6.800582391108739300e-02,-1.938844086986013515e-02,-8.590374733932475138e-02,4.369404854768880325e-02,-3.217886511510591185e-02
-5.286345038134302593e-02,6.830174109422845405e-03,-1.315313200917165859e-01,-1.231557492794276704e-01,-7.814085974443336913e-02,2.317048045781985588e-01,3.628411708208080233e-01,3.825868358946314940e-01,-3.214134078376513770e-01,3.922153560230757230e-01,-1.012914458377937033e-01,6.829028565265946038e-02,5.444300454193215510e-02,8.431566256317024610e-02,-1.096641586594518658e-01,-1.255800555441766442e-01,1.456977995212767052e-01,-4.951840563517917460e-02,-2.271660691488935069e-01,-1.564396953321550710e-01,6.033329574563536801e-02,1.975991005519306398e-01,3.552737110561005052e-02,1.379278979853623410e-01,6.477124714739485034e-02,7.757912065175745497e-03,-8.104846265178078379e-02,1.217094246651816147e-01,1.842716220562747031e-02,-1.622902987790016127e-02,6.734519369456966331e-02,6.624402955392318798e-03,5.721058142366332311e-02,-1.691255598442232069e-02,-8.882727768460459139e-02,-8.526350619753533810e-02,-6.724134568283182678e-02,-7.296319283470460715e-02,6.466327211708169237e-03,2.355117212811771998e-02,-4.677893719918668064e-02,1.312076856234068584e-02,6.112668409203970282e-02,-2.085756090155674314e-02,1.012014194985734750e-01,1.647437307559606323e-01,5.972922133934363553e-02,-7.492612398246292771e-02,1.235006495084598754e-01,-3.810546777377166183e-02
4.997703691253576122e-03,3.987350223614160444e-02,1.119491800263786550e-02,6.350555501389622270e-02,-2.831045554106416742e-02,2.503822146690353190e-01,-2.018078294926081151e-01,1.210759356671067682e-01,-3.772805924148137091e-01,-2.969454392552182131e-01,-1.064245941844904619e-02,-5.435456684993106302e-01,3.242877076236164724e-01,7.235745413686330008e-02,-2.003283962226923287e-02,1.223209993895303660e-02,-1.799670503088257323e-01,-2.235265046262276678e-01,8.241428789898069818e-02,2.308665303330888902e-02,5.375859782109324719e-02,7.628518235694978222e-02,-1.171773133458543087e-01,1.117680163551696207e-02,2.665327988353261707e-02,7.854649531899088322e-02,-2.727855579666638164e-02,7.225495553685457040e-03,7.225168851147473204e-02,-2.156610297588510555e-02,-9.055938791166090462e-04,-1.297403431240955023e-02,-1.056321905109042225e-02,3.200490222070112578e-02,-6.249597244566303111e-02,2.721249570811113891e-02,6.569598892915504140e-02,-4.698677015123425837e-02,-8.001081928727485360e-02,-8.511713513464518044e-03,-4.769689290440461138e-02,-4.423442898640331938e-03,5.345936685166838287e-02,-9.048403696852858058e-02,-1.538894953782707631e-01,2.153233079338792016e-02,1.371814332615202137e-01,5.737040348667105105e-02,6.651747748199585142e-03,3.501024940865238300e-03
-4.034631387037684869e-02,7.954563168554239228e-02,2.046913042528977072e-02,2.274124779982824585e-01,1.065056498188797773e-01,-8.758375554331895851e-02,2.085723744671758029e-01,1.068607256910720227e-01,2.514561641002148740e-01,-1.009786809040534861e-01,-4.452260146747495373e-01,1.510974143955699511e-01,1.067863779762589643e-01,9.513651370685660691e-02,-2.920413463187984116e-01,-7.280983087287316857e-02,-1.920780859016956721e-01,4.966085987541840607e-02,4.524680653294266969e-02,1.696150784445362991e-01,-1.543131775979159626e-01,2.017266440534922767e-01,-1.029517442811058586e-02,-2.660293312136422506e-01,9.179282600754927468e-02,-9.409024858841769090e-02,-2.449839612698750113e-01,-8.331673128366669234e-02,1.970055138082119073e-02,-8.530686427629868840e-02,6.408269179109862823e-02,-9.178330750966030849e-02,5.016295721701862637e-02,-3.144933268447558383e-02,-6.657971018295587295e-02,1.817321952074961097e-02,6.305409271519585301e-02,-8.560517045284349313e-03,-7.122033746197511950e-02,-1.117162600687756080e-01,-3.167674788997482116e-02,-7.058621030810470487e-02,1.270270244830554174e-01,-1.394543606838789529e-01,-2.030869564594762477e-01,-3.641867332817547154e-02,6.311482155576463027e-02,-2.309007504045069992e-02,2.280873148724076038e-02,-5.498602802310230409e-02
6.705773644520315879e-02,-6.400294608583696754e-02,-9.814345291716340680e-02,7.896274053426272088e-02,-1.602665948646973815e-02,-7.258140445686531161e-02,3.717133116202344101e-01,-2.214580916255848853e-01,1.331121359524881087e-01,-2.823533510922187073e-01,2.241410668971884901e-01,-1.542457486005692213e-01,-3.547662923765614040e-02,-1.144393021733678406e-01,-1.516356298733833319e-01,-3.004357764726675040e-01,1.454423067127050273e-01,8.994654836047449864e-02,-2.540911948506963114e-02,-2.396811278418250479e-01,4.760727848240958737e-02,2.733826351047688452e-01,-1.394690580618414000e-01,-2.027836415027682582e-02,-5.801981784782209162e-02,2.469014918424392580e-01,1.608649816100412785e-02,7.520612182715886995e-02,-7.929897536842941963e-02,-1.597709738900521814e-01,-9.111258034179585408e-02,-4.815788584717951848e-02,-7.514874952425631971e-02,-4.807423737693833007e-03,4.888439675747868751e-04,-3.396408783056970720e-02,-8.234413812263180477e-02,-9.374021304971938418e-02,1.408817775410707573e-03,-3.840323244666359048e-02,2.168381213754076026e-02,-4.442919013796237104e-02,9.894217260287915816e-02,-3.576048397490153019e-02,9.208431072968008280e-02,5.104862238347568359e-02,2.516603236117151074e-02,1.065534802898291944e-01,-4.056948331765108245e-02,2.455167037043675116e-01
3.288411895569896826e-02,-5.856411676452474499e-03,-1.385613742618765909e-02,1.473201384968716998e-02,1.089375551580455403e-01,-5.516129724790814343e-02,1.608360770942516838e-01,-2.642197619767744365e-01,7.802406639306624925e-02,-1.540120191932267679e-01,-2.902507138495669103e-01,-2.328568137787551118e-01,3.690206444834753796e-03,2.792259521039086589e-02,5.688401396799791510e-02,3.854150240277007256e-02,1.940342099375814977e-01,-2.624159132266238870e-01,9.479614631712342254e-02,5.124387253868110947e-02,-1.922272236501422760e-01,1.570444935151918409e-02,2.561498204829213421e-01,2.695828964285398865e-01,9.895778118266163048e-02,-5.764742594875717219e-02,1.839249469773230894e-01,5.753845688533795744e-02,-9.205657657077466471e-02,-1.066770697585261857e-01,1.435821022286872251e-01,5.947135280100528110e-02,3.233522846112674154e-02,-1.179894366735674688e-01,-2.281566987886486653e-01,-1.118688512220341186e-01,-4.920883518580800031e-02,1.333571172384641623e-01,6.517494160380030849e-03,1.253582403085092278e-01,-4.092258657337934091e-02,8.921776619662545593e-02,5.259446631717975759e-03,6.364583871900242329e-02,1.626413111550560342e-01,5.031614141826277337e-02,-1.353390498555173127e-01,-1.442395426759988109e-01,7.998872401042014801e-02,-1.213389536253502710e-01
2.940629114316294784e-02,1.623397772749419349e-02,-2.435610494663631095e-02,-4.796806400901999778e-02,-1.490639783557875797e-01,-1.285528355770625825e-02,4.826725041357939061e-02,-1.017614495133388197e-01,1.175771242841752162e-01,-2.472850901660820777e-01,3.173736543270980759e-01,2.882422004280174588e-01,1.124886263803813041e-01,3.555248038088526519e-01,-2.597849914410471639e-01,-1.480280879889261103e-01,-1.301178302945805443e-01,-3.142963577209162418e-01,-1.763822968559134452e-01,-8.145735731150405279e-04,1.061597332214809786e-01,-1.595516613588061627e-01,1.527261469669660976e-01,1.563506912053004294e-01,9.315444229801822518e-02,5.774082445300454669e-02,4.771319791551303924e-02,-8.836864656855993039e-03,1.019445755537093379e-01,4.424459109630789200e-06,1.713739111263364312e-01,3.476512702576264185e-02,1.108111925501263917e-01,2.056065629673966277e-01,3.468322215259245916e-02,2.882699848855624011e-02,1.989010257917138424e-02,-6.190909384371081486e-03,4.917033412948026982e-02,-1.930052318375044540e-02,-1.656833776137065506e-01,2.491305619017049073e-03,-7.140040399736193033e-02,-3.401665690640148787e-02,-1.975480249997721427e-02,6.417589589092699554e-03,5.291383562328401402e-02,9.669804600674125616e-03,-5.955582380042290236e-03,-1.179813311993537506e-01
2.165802625925937128e-02,-3.278399200730391927e-02,1.026913747097431828e-01,3.997394499594533052e-02,7.007559051832670804e-02,9.467289890314131706e-02,5.327611512577692943e-02,1.873549794965287396e-01,1.503673213033709655e-01,-1.759021755578256407e-02,2.814465245957857853e-01,-4.763434895120438606e-02,1.132858504200137117e-01,-3.856891731803243628e-01,-1.901011906412751473e-02,-7.926522166369939781e-02,2.013876380604049388e-01,-1.111820686969050009e-01,3.072911436185368078e-02,3.211419059355756223e-01,-1.992751703271990193e-01,-1.362996737429981731e-01,-1.044580472719938979e-01,-2.011396534227867794e-01,1.395725315556249346e-01,7.423220013114321947e-02,-9.710170386089828076e-02,-9.003951440791214955e-02,2.517754460493527580e-01,-1.135355875887011090e-01,1.076374129533067547e-01,1.004823579288991187e-01,3.436702279898071200e-02,-4.219313343489487084e-02,-3.537793520596940744e-02,-6.629228686069563170e-02,-1.028427997316072179e-01,-6.841205664619545712e-02,1.219806287035830328e-01,1.066378470375647092e-01,-8.539349308077764933e-02,-4.909286528624594304e-02,6.249227392301756612e-02,1.723447853911114214e-01,6.770474856256475382e-02,1.657053219623629836e-01,1.149603910064608270e-01,7.101014636171398831e-02,-5.306859356103906661e-02,-8.583640388287544498e-02
-4.754117936848983351e-03,-3.715456239369698682e-02,-4.661174806609419408e-02,-3.554432301429608781e-02,-3.785306149605565675e-04,-1.584170359469813383e-01,3.244159673335109823e-02,-1.675288111323588736e-01,-1.503389111639811260e-01,1.050251006552624100e-01,-6.720671372305458968e-02,-2.309680616537280184e-01,-4.775747391076949344e-01,-1.677227564490676448e-01,1.941949378280449778e-02,2.018405694049248134e-02,-2.573509945502747698e-01,-6.818416243157174317e-02,-2.863102651755109473e-01,2.629750092540173445e-01,2.293340073381636701e-01,2.264407831357871659e-02,2.006287959620902117e-01,-1.845867480109670417e-02,4.190392497305787944e-02,-1.407824819439262160e-02,-1.310439479623939640e-01,1.302768434269921394e-03,1.412196407692860589e-01,-1.860929732605489384e-01,6.384833068763459685e-02,6.137657382508458770e-02,-1.014969874837311353e-01,-4.656480285850081446e-02,1.790353173983308399e-03,7.288943997726759702e-03,-9.906540842511318834e-02,5.911647120470526345e-02,6.351764246428809324e-02,1.181283422411458228e-02,-1.172061416945104767e-01,-1.278283663113146118e-01,2.445941100907781870e-02,-1.427484079129692218e-01,7.111377690245770586e-03,9.828914993516027487e-03,6.049255157061105698e-02,1.266593985535594546e-01,4.417602643589578493e-02,7.196757825109127704e-02
-1.322815404541789405e-02,8.570727867566619446e-03,1.059047940472240129e-02,2.538818854496114035e-03,-2.198167110996554832e-02,7.638365817217684928e-02,7.333061485699449156e-02,3.049548826452851483e-02,8.322079355475081597e-02,7.739884106366806682e-02,-8.837859392114270907e-02,8.293279192631303892e-03,1.659743328860243117e-01,-2.526591772239239475e-01,9.975675358741664667e-03,-6.621280196112430683e-02,-4.497900676496617844e-01,-3.299636357309993634e-02,6.623543662557040967e-02,-1.691792044669454542e-01,6.965338135689472243e-02,-2.593861059147353765e-01,1.663166727317395011e-01,-1.121348634980413872e-01,2.263009744661244882e-01,4.514608437880590630e-02,9.133969948330694644e-02,1.584598599067960079e-01,-7.444807703059942716e-02,4.580738776263526546e-02,-3.076909292955690156e-02,-1.828706558670554760e-01,1.297182566738448173e-01,9.091620628542100568e-02,4.171702068961051502e-02,-8.422622620439812469e-02,-2.208476939040288911e-01,7.118444354736500057e-02,1.510397439214418713e-01,-3.448960688672628866e-02,8.229816915366978958e-02,1.925958218225508334e-01,-9.726400990598957352e-02,-6.351001934588162978e-02,5.253012740266320424e-02,9.343597534229093615e-02,1.942870710311388194e-02,3.239708543536463925e-02,3.435388175194502292e-02,2.852870839827053029e-01
2.378254802669522300e-02,9.704242523324710032e-03,4.610980105350459546e-02,-1.692172909784906212e-02,-7.872236904696527926e-02,1.181261169046236284e-03,1.220182662882372399e-01,-9.395236807703634396e-02,-8.321540314321340670e-02,-1.010537748094022525e-01,1.810880444786338861e-01,2.836195624930284986e-01,9.343952528745036457e-02,-3.853956250962553565e-02,4.579939631254675847e-01,6.110642956076139942e-02,-2.391838062571830792e-01,-2.379607612340427503e-01,-2.448558832495327520e-01,1.393219804322924082e-01,-1.507777037111910912e-01,7.613042696023064604e-02,-1.447531183436872870e-01,6.129082340028308568e-02,9.026249270502822997e-02,-9.194342503227981300e-02,-3.339283958425404153e-02,-6.040891955688309362e-02,-1.109376311853365465e-01,-6.087100768443784449e-02,-1.259860749904096189e-01,-2.176546331099446507e-01,-4.882279781261143758e-02,-2.613873523991889214e-01,-5.023644265180450541e-02,-4.639233091104322942e-02,4.751179773574309984e-02,-3.366229352864123087e-02,-1.245409845187586545e-01,-2.742100556125352459e-02,8.684534674595505155e-02,-4.774071912432280990e-02,1.879677227420065988e-01,-3.104587897244853734e-02,4.865089628403796579e-02,4.477095723279103656e-02,4.052464021066833066e-02,-8.924358094013162823e-02,5.316480049560275145e-02,2.995315749498377728e-02
3.243321358254984020e-04,4.987288268096150973e-02,-1.142044099527956755e-02,4.868100948021194391e-02,7.189818524292876378e-02,5.326862454150557702e-02,3.765430472894909508e-02,-8.605368339455767013e-02,9.211688341928882251e-02,-1.951773042565606575e-01,-2.572590049913050514e-01,6.358089079866439952e-02,2.033287339050633968e-01,-9.794076026932602153e-02,1.799018947751541142e-01,2.030788652715716514e-01,1.723589644013018285e-02,-1.087483376365394605e-02,-3.686790181878198958e-01,-1.551041015833699299e-01,-1.068365781239982715e-02,1.496381532881698451e-01,-2.202937392550602391e-02,1.773204188885509069e-02,-1.335930863904599974e-01,6.351660161437794327e-02,5.260151362327510766e-02,-1.643481395487867980e-01,3.303139128477171338e-02,1.551290452598791947e-01,9.110322647830862430e-02,2.764339127588525957e-01,1.426236308412386772e-02,1.165756005145454355e-01,7.139002855317022611e-02,-2.491905980469346499e-02,1.081187451383655573e-02,-5.817329218580531702e-02,1.949552721768487151e-01,8.912489927595740324e-02,2.662817726893992182e-02,-1.232265661658883127e-01,-3.492796149515926818e-02,-2.149822160881423305e-02,-4.264644727641708766e-02,5.793008021916107309e-02,1.264588295973897714e-01,2.375530837164405162e-02,1.567696297937337113e-01,1.439824792407087273e-01
-1.649078808290337789e-02,5.287724752333964814e-03,-4.481948668004435109e-03,-6.613051241370181653e-03,-2.732275020895041581e-02,8.637953200296234757e-02,-4.437876388794589205e-02,7.697491387575461363e-02,6.876193510492654981e-02,-1.716331445054460891e-01,-5.527756464546371845e-03,-1.367092864062832355e-02,1.991822133115779547e-02,-2.764684481076928324e-01,-9.392154969463424596e-02,-1.671546436534487867e-02,-1.258485572400369623e-01,2.462580477766797560e-01,-1.164827435183613258e-01,-2.484547631638072684e-01,7.776676431304513359e-02,-7.896674659690686160e-02,1.724641679067100142e-01,2.749729052420016862e-01,6.161233239198082856e-02,-5.359879833270513733e-02,-1.370257620257052666e-01,-1.355295680519786883e-01,1.310576123096010917e-02,1.160526984212427726e-01,2.032176799847770776e-01,8.405831864873716808e-02,-2.258566548197488977e-01,-2.093889158358087921e-01,1.197449169126220125e-01,-4.776918162801806200e-02,-7.105744179960352125e-02,-1.284264790735758360e-03,-8.998804592797930713e-02,-8.885388025179043192e-02,2.597978758582354317e-02,-1.045996127895043454e-01,-7.436942589381048511e-03,-2.532947515316308351e-02,6.826667504507867579e-03,8.054928222833125651e-02,9.964960447948670308e-02,1.082052483005985048e-02,-2.360497463006977215e-01,-3.158663636299845479e-01
-1.043016345518202152e-02,2.335003730221102414e-02,-5.988930318230588530e-03,-2.073608717925494015e-03,-4.756371526787660231e-02,-9.094235604016707303e-03,-7.457335593836618426e-02,-5.298530061391193424e-02,-4.010868689790504649e-02,3.514376958004546136e-02,-1.190292451580502314e-01,2.567874648018727002e-01,-2.882996112595390126e-03,6.707975725498756259e-02,2.436376797600102173e-01,-5.940862747649672260e-02,-2.827495132054547167e-02,-5.441934578319820859e-02,3.612665632216371381e-01,-1.855102519078365708e-01,2.626635470219415014e-01,1.433184247333506856e-01,-1.014114539056998471e-01,5.139331933198509200e-02,1.175932814616734712e-01,4.448178791093715390e-02,3.895991451570318675e-02,-1.593833075719287562e-01,2.420940253087647265e-01,-1.431297137408903963e-01,9.945734286689794645e-02,1.035307094816138168e-02,4.750592365030129050e-02,-2.098216962654370632e-01,-1.459851873336017181e-01,1.029935753259063613e-01,-2.752836920315197833e-02,-6.336323379070099571e-02,1.382263669353199498e-01,1.382119714014924325e-02,-2.639622850775080395e-02,-5.658621576337701659e-02,1.513242068419640429e-01,-1.215499238220975747e-01,6.519302455357456338e-02,1.491251632222731494e-01,1.832666798212992387e-02,1.266940185139545372e-01,-1.922127029664507658e-01,-1.067802527983573724e-01
-5.525064145993290043e-03,-8.871617995104136289e-03,6.017175913396070192e-02,1.721152121743759270e-02,2.016804401399030847e-03,7.374389974770742279e-04,9.081014310917659427e-02,7.806556784296424245e-02,-8.322349526283914778e-02,-8.425980671686945922e-02,2.422894648538344020e-01,1.087340786515515745e-01,2.335762729492935619e-01,-2.698922011975384838e-01,-1.237170043592775298e-01,2.233930785325651813e-01,-3.247777381073757574e-02,1.714391416370192323e-01,-4.319897002898053645e-02,1.481035273497138816e-02,1.728616579329095293e-02,1.550246637373035308e-01,2.887173381752364265e-01,-4.785624331682508670e-02,2.735509821923512441e-02,-2.802274484040906399e-01,2.332257418496916368e-01,1.142727630044657605e-01,5.980236357619225784e-02,-1.671448961508056053e-01,-1.947541677430096319e-01,1.777876721919493253e-01,-7.217207812548001589e-02,6.241176685781834460e-02,-1.526174378645727137e-01,7.920468000835771682e-02,8.932327967538529478e-02,7.623488489069144003e-03,-7.379348283538619824e-02,6.279673162112794915e-02,4.969694093088646708e-02,7.201758807692075492e-02,1.370684856808868368e-01,-1.896791477937184722e-01,-1.251184321910771627e-02,-8.678742169652794991e-02,-1.829577777292868412e-01,-1.547871087982993776e-02,3.737376477298653965e-02,-1.058185211410125198e-01
-1.866364818577957024e-02,2.763211623899539462e-03,6.285562822599417843e-02,-5.378547407092068404e-03,-1.104834772209478504e-02,5.230836955543861216e-02,-5.207555551695546014e-02,1.362938129390755260e-01,4.340488031921089368e-02,9.779280578877785901e-02,-1.238436691964836800e-01,1.472372404544632085e-01,-9.262318880660075360e-02,-1.994542588234462718e-02,-2.679525663557463244e-01,1.558173159891352300e-01,5.444314455334525737e-03,-3.468112668401805987e-01,-1.210065282344852111e-02,3.163407594553560576e-02,-7.925019886803658098e-02,-9.409389591164946109e-02,-1.225058668274367629e-01,1.183728099924578198e-01,-1.820401656721480910e-01,-1.430719986954283041e-01,1.796411471599410059e-01,-2.130733689327548586e-01,-7.770437866073923172e-02,-1.439442168702987357e-01,-4.632223886697141996e-02,9.757062713937383891e-02,-3.411428399129320388e-01,8.607751583418142560e-02,6.356054345832962138e-02,-1.182846356343109084e-01,-5.468100398601785650e-02,-1.765792297843897241e-01,7.178213934206416347e-03,-1.837716170221559420e-02,9.304303749679553037e-02,7.377010110264906051e-02,-1.639522432141796507e-02,3.309018298765481481e-03,5.213016047133493813e-02,1.074805630388721289e-02,1.328651550226407352e-01,2.200768195265214722e-01,-4.599133509784544827e-02,2.149885817592491477e-01
7.996009068033098355e-03,9.497441126289715360e-03,-6.311882509325602957e-03,-9.369444036849187973e-03,-3.214776450429554511e-02,-4.350038998196054801e-02,-7.064730225282008294e-03,6.764023528337277658e-02,1.189831129945246452e-01,-1.542849093167723319e-02,2.494513249273873357e-02,-8.427197123232413323e-02,1.304761969768792051e-01,1.926721078784671970e-01,-1.669386630305691108e-02,1.061833769782144915e-01,1.543236235613941743e-01,2.207109707595986126e-01,-5.154192254592371292e-02,2.503747226743507914e-02,8.575825348370624823e-02,-4.234019190890420115e-03,1.765918041662350724e-01,3.359103833625673441e-02,-6.396282475982295601e-02,-1.291691599762324616e-01,2.073538314558692058e-02,-5.455071715448751857e-02,1.212205393338836312e-01,-5.749906704992202577e-03,-2.111548534789083054e-01,-2.106406627623745031e-01,5.660827928225756200e-02,-1.692066676683585680e-01,-1.685522073501322105e-02,-8.138042333159684061e-02,2.602113232503650009e-02,2.184093024569977448e-01,2.314716734533825704e-01,1.706344033882348232e-01,-3.985916136710618979e-02,1.306488517792077919e-01,8.861241088726649895e-02,6.865315590500831178e-02,-5.937069247586079790e-03,7.426929346629022877e-02,3.576395480949832728e-01,1.102598930730690208e-01,5.006555540417313016e-02,1.462255888995089570e-01
-1.596611320442253140e-04,-2.032313205245052032e-02,5.084730045127137249e-02,-1.110219442300714766e-02,5.893238528855970770e-02,-5.483494847379771081e-02,-8.557044610385015904e-02,2.941959559614299238e-02,3.652047851034534443e-02,1.792525441643195300e-02,-3.081135904945526277e-02,8.241639403116748919e-02,-4.374521275790253100e-02,-2.530328284682144546e-01,9.831176329533974911e-02,-4.455452704788255280e-01,1.066594637833269965e-01,-9.621074406477211904e-02,1.580051640584019257e-01,7.081620342341082841e-02,1.059902895276400164e-01,4.128849914307280988e-02,-3.446723203905960320e-02,1.774067952264556380e-01,-1.487102357845708211e-01,-1.701598798850155747e-01,2.046470764070227322e-01,7.008735590187525899e-02,1.359054414170970948e-01,9.245462803344983715e-03,3.742164637107464609e-02,3.566213512394555973e-02,7.389841902129455631e-03,6.381502455917015260e-02,-3.322906534808650614e-02,-3.836809494842177704e-02,1.119701176188476199e-01,1.008182028646154027e-01,-4.485645484228907576e-02,-9.632028331619058026e-02,-2.694187950083853922e-02,5.136076128671657193e-02,-6.030280330623511570e-02,-2.147176737688845649e-01,-2.864922163158976631e-01,9.021676377373426259e-02,2.310141253035184472e-01,-1.769683827782733143e-01,2.800751171779056192e-01,9.562545405838104862e-02
-3.550524109334949295e-04,-2.652290728159497832e-02,1.981379857082598422e-02,2.175758129697506413e-02,-1.010251146653434740e-01,-1.236878679481503152e-01,2.550457897015499104e-02,2.690233781342938821e-02,-5.365758671623017950e-02,7.041482229017248518e-02,1.201630319440692429e-01,1.957601383370394937e-02,-2.174674983216360810e-02,7.203516527538175729e-02,-7.932871511755605620e-02,1.734243177035655337e-01,1.264388260832730732e-02,-5.293523584612722793e-02,6.119478736139492836e-02,3.794432338039194219e-02,2.248737480044729065e-01,4.155576051562281936e-02,1.395874389291514583e-01,-2.619024310426641966e-01,1.213548226476858227e-01,2.668887576247734872e-01,1.135992833701900684e-01,-2.075819548457341623e-02,-2.107537189433584257e-01,-3.725731032524746966e-02,9.228489480986787341e-02,1.738537428083550274e-01,-2.746519380672585858e-02,-1.165641302689495867e-01,-6.251703465767340095e-02,-2.297389344543272482e-01,3.416698336355437071e-01,1.739061843929107232e-01,-1.589216516332129236e-01,-4.641934382221282740e-02,6.990213425888884557e-02,-6.625571568623826735e-02,1.435663673167444920e-02,-1.949994039522405520e-02,-2.056957455407057433e-01,2.718956283374995841e-01,-4.247548537870099450e-03,7.461705537443191760e-02,-2.250739102761650789e-02,1.290930914298021037e-01
1.648573387931532132e-03,8.673586662839887634e-03,1.372537864338892188e-02,2.998084393908669043e-02,5.130017519542225818e-02,-3.627539886409680142e-02,-7.100525351149886144e-02,-1.624542050847056773e-02,-1.491454034088096348e-01,3.669708749435222211e-02,-6.510870369408837399e-02,4.948488106924555513e-02,4.412601062302026061e-02,-1.093522284686800211e-01,-5.464062471561556555e-02,-3.674256261733505058e-01,-8.263105718952801215e-02,-6.700811694595648627e-02,-2.682022298949853778e-01,-9.237072175817090391e-02,5.463122551901505863e-02,2.862271209425060192e-03,-1.069477758421570890e-01,-1.680027927688219902e-01,-4.706336964192056604e-02,1.078149094644670347e-02,4.211280684280761799e-02,-2.252402140882089066e-01,5.163252799268658322e-03,3.136724522383768643e-02,-1.110841200670834444e-01,7.023677851103651837e-03,5.770902587070406153e-02,-4.276290754096620517e-02,-1.392624040858118917e-01,-1.208629447304979121e-01,8.840395339077863901e-02,1.467660184067036133e-01,1.155543400490152972e-01,2.720402615820662340e-01,5.296160753524012388e-02,9.040244895407073544e-02,-9.081401192158651547e-02,8.869525509119599582e-02,-2.380182908001583428e-02,-3.146599322662555487e-01,-1.764989763853831439e-01,1.010973752014985849e-01,-4.663685570065599639e-02,-9.779312101919665490e-02
2.194555930586671380e-02,1.748019235036072858e-02,1.506007485523472647e-02,-1.629415158971328492e-02,-6.372592468240068087e-03,-2.603016525846883061e-02,-1.206546474455402057e-01,-7.339410513686995489e-04,6.654448286890433939e-02,4.965622578694133676e-02,-1.731373022553413521e-01,-4.091024339003970778e-02,1.165358337174637743e-01,-2.826647377065949485e-02,3.454740872721573808e-03,-8.626835136502356005e-02,3.330139275385088360e-01,-1.811575705177385087e-01,-1.538040862551550148e-01,-1.127867754520797405e-01,1.440039471969831175e-01,-1.566984149333989496e-01,7.702207838702362919e-02,-2.502136253306939673e-01,3.040550825059769591e-01,4.981058705047634871e-03,2.102965235055895554e-01,-6.144789446133391841e-02,3.315570840822082421e-03,2.647198773479003675e-02,-2.325752904006925526e-01,-1.235137127741260249e-01,-1.371411724355460771e-01,-1.171175985484867593e-01,1.145775139851575308e-01,7.468394237091560695e-02,3.373863945232921657e-02,2.371003232447477238e-02,-9.977708943942273367e-02,-1.904420375627795536e-01,-9.325660449556222309e-02,-1.368483112319646977e-01,7.430877109163891436e-02,5.730011577332855266e-02,1.506492183657549555e-01,-3.881247653152875010e-02,1.621254916226872247e-02,8.525019102767258938e-02,1.840393170854734417e-02,-8.313504851835318288e-02
8.295698396649509032e-03,-4.239311604241047943e-02,-9.637508324259476400e-03,-2.882287488000796066e-02,-2.310362029400133202e-02,-8.247568635821138361e-02,-4.886564459093130364e-02,-5.928433767764030443e-02,-1.515858970175925358e-01,1.169142794230872001e-01,9.221972467431578668e-02,-9.770093337222920254e-03,-1.347897341786822023e-01,2.752761879107593415e-02,-1.104852068111098623e-01,-2.982945122228235213e-02,-9.497048153350902411e-02,1.185527134824231887e-01,7.308765386744582593e-02,-9.109280759123343507e-02,-3.821631633778783677e-01,2.326090192135234491e-01,-1.108931997766477162e-01,1.335734663839410752e-01,3.926484685348905490e-01,3.270303375547611857e-02,2.482127743384156815e-01,-2.293120760280494552e-01,2.135759279288095003e-02,-4.256584041001529317e-02,-5.837380588533261361e-02,-6.915195289420293656e-02,-6.798142056305744862e-02,7.150471958960437358e-02,3.810355881980728721e-02,-6.940708954445379275e-02,-4.684706899482275755e-02,1.020562840228251833e-01,3.992121380669602648e-02,-4.109563052070480671e-02,-1.741925780110498145e-01,-2.348158295020314965e-03,-1.228306336280579891e-01,1.262348426715032002e-02,-1.780226093954042910e-01,-9.111917670355274002e-02,8.545386059416709701e-02,5.371892025434955864e-02,1.028918028488784442e-02,-6.400637711151213605e-02
2.169718186326038912e-04,7.882728043382794840e-04,-2.218698724104305013e-03,3.467093711142932300e-02,9.900522573089041642e-03,4.918522682070181756e-02,7.887214283525716130e-02,-3.205477970261210591e-02,5.632137419219022251e-02,-4.797781221082449143e-02,1.335107422083565420e-01,-2.455224165078403412e-03,-2.536513847007553779e-01,-1.131064773612243113e-01,-8.946103439430307114e-02,2.991068001111649721e-01,1.552220477850201896e-01,-3.093585453748012304e-01,7.000208712680022760e-02,-3.066763119004879967e-01,4.093628014297526901e-02,-3.843742924507310976e-02,-3.759159168094568237e-02,-1.416016386804928029e-01,3.956983389351428904e-02,-1.753533281375420083e-01,-1.657064128293287975e-01,5.966053581845665033e-02,7.614137810044445398e-02,3.109440334815234963e-01,-1.433232261257189055e-03,-3.763764285120152486e-02,1.567528970139961397e-01,-8.668728895330561623e-02,-1.472061840821337619e-01,-1.586956694162936776e-01,-7.183460398396859792e-03,-1.965357556161630159e-02,9.814682252823221653e-02,-2.086808520982091908e-02,-1.147076768237689781e-01,-7.117753041788107971e-02,-2.776767869900692576e-02,-1.371009219332728069e-01,-1.835769884848332811e-01,-7.567196985573543255e-02,6.209550169795760577e-02,-8.642928638426683463e-02,3.208080281370134096e-03,1.248536582763684621e-02
4.002382130878935802e-03,-6.206293145588363293e-03,-4.642719019223682554e-03,-2.256924790845954432e-02,-6.736046874945454677e-02,6.185678819828703545e-02,9.411631107318386980e-03,-3.709637832931366244e-03,8.382505595388083097e-02,2.160037275166754728e-02,-1.841410387172213170e-01,1.504156684570088776e-01,9.766374828533960772e-02,-2.487258706095452632e-01,-1.707200020086065695e-01,1.793938685191010518e-01,-1.332378467470241024e-02,-9.052088172570088576e-02,3.594841320877028429e-02,1.579217108359606270e-01,2.251448075488778622e-01,2.955868744061425704e-02,-1.525674375077585021e-01,2.709384695614588945e-01,8.520075209138422423e-02,3.071980139374029806e-01,1.194556401599079776e-01,2.383185916397629334e-01,4.537511924195939544e-02,-6.893278667525065684e-02,1.207155420742625496e-02,-1.322282781716179190e-01,-4.100077678705554840e-02,2.440555526762471384e-03,-4.940011481930640241e-02,2.227853722775086087e-01,-1.364488928404666845e-02,8.231524901882966705e-02,5.365819226115801921e-02,1.177962623405969245e-01,5.197772640422232415e-03,-1.328317080161458275e-01,1.133315949234320677e-02,2.571045693526939346e-01,-1.364878102792685677e-01,-1.123117727197410348e-01,-5.305848955565078268e-02,-1.493124814491200714e-02,-2.549181385581750225e-02,5.248521846025522297e-02
1.767123909431155600e-03,-1.168040713266561316e-02,1.813946289836758027e-02,4.298430982378520331e-03,3.996292543705191186e-02,2.430767801598673200e-02,-1.849707571017574935e-03,-7.886932450618001911e-02,3.991575470950063653e-02,-6.061815327576079021e-02,-4.673503334313615365e-02,-7.431684279621098010e-02,-7.077627498868750699e-02,-5.903015054025699017e-03,-1.023433452332190713e-01,-5.989918169124776315e-02,-3.173732620888161660e-02,1.561028547184667159e-01,-7.936493259471348594e-02,-3.348260047055052341e-02,2.312119771788131717e-01,-2.056361231510219489e-01,-2.510306280043191340e-01,-4.729527311264059009e-02,1.150242058522566724e-01,-1.949071896216828526e-01,1.823816762902013555e-01,-2.763079274950930309e-02,-2.404966253400704634e-01,-1.417622702842097349e-02,1.557751732679040491e-01,-5.213357930272304736e-02,-6.169551588503824346e-02,8.160083559263789366e-02,-1.925617203672708166e-03,-1.218492717365861899e-01,3.938215136459982668e-02,-1.841451412761725970e-01,-8.322638754090402879e-02,5.213277096391258358e-02,4.829147057170761481e-02,2.351277530977664496e-02,2.454456081274946355e-01,1.079652909099335645e-01,-2.746740872940087175e-02,2.071432631007886216e-01,-6.730602760265429196e-03,-1.790857167543536133e-01,1.935431806868502802e-01,-1.893886318281328696e-01
1.237288034941389425e-03,9.327026301368369909e-03,1.817247073581922459e-02,3.692236720879344541e-02,-2.246761473260890096e-02,5.327779020748201616e-02,-1.747284381988740542e-03,-1.059124865605898524e-01,4.261404008698067153e-02,-3.897862915042319548e-02,8.948654275889537935e-02,-1.513554339657729661e-02,-9.139007787091601998e-02,-6.746750829260525842e-03,-1.216950522894758024e-01,2.215561608588796916e-01,-1.518295486797539839e-01,1.182059551185936919e-01,6.069094789109007876e-02,-9.289959097268607469e-02,1.475417894803125185e-01,1.927977192537859152e-01,-2.351441493631730995e-01,2.105252864772801710e-03,-3.360699819453510668e-03,-1.277403173789523616e-01,8.446117279028779457e-02,-1.337402369635205535e-01,3.038660816692734246e-01,-2.849840100741102278e-02,4.435777571275004161e-02,-1.450906273758623133e-01,9.497957409096530190e-02,7.120801867167310395e-02,-3.671480187974614923e-02,-1.028440292637075870e-01,4.890518692158880854e-02,3.119158593455535755e-02,-7.957328058209961474e-02,-3.390455377384207075e-02,8.317858583468225320e-02,1.155678214891290578e-01,-2.946713890415914028e-02,2.008359696194549626e-01,2.412060515670990668e-01,5.196800801577355911e-02,-8.913966918867317901e-03,6.480760416708956917e-02,2.908655621292834947e-01,-4.285131457816213074e-05
-1.755749316200282562e-03,-5.469788775823101676e-03,-1.124297071569653819e-02,1.973504157151332455e-02,1.901784907071789755e-03,5.278274842159398628e-02,5.704018234642212887e-02,-2.174452399066879177e-02,1.593719788185550545e-02,2.628898724746520782e-02,8.872790381146371252e-02,-2.407465019009583790e-02,-7.838271920428011019e-02,9.717524946947471431e-02,-2.010404477828539246e-02,-2.518303210510923831e-02,2.996697841458550310e-02,-5.051199680635967693e-02,-5.322906799627069065e-03,4.859288705758926102e-02,1.087390240642545913e-01,-7.051599372464383009e-02,-1.988154039504663739e-01,-5.391467382446026718e-02,6.432795135280168497e-02,-1.025582310253384845e-02,-2.603731676711659726e-01,2.520200983228242098e-02,5.602674204702853822e-03,2.832827323917920526e-02,4.304123168637936925e-02,1.195047198309006908e-01,-1.450174816047783977e-01,1.210641257750418587e-01,-2.238465490019660997e-01,9.325271067240065159e-02,-8.720618992918882650e-02,1.533878881996375565e-01,7.201207481071353333e-02,7.530646333990861918e-02,2.240367983043821676e-01,1.338699551023525558e-01,5.372757831957348379e-02,-1.498576161662500128e-02,2.877305396955597006e-03,-1.680963097092164071e-02,-5.931971547344105922e-02,-7.621452513919757532e-02,-3.704611216211194102e-02,-8.176887617024528043e-02
7.183323941646863053e-03,-1.950169062657042610e-02,2.750431265212982881e-02,2.248776887120745166e-02,-1.564887329891841324e-03,-4.306894798699676535e-02,1.076841812665057102e-01,-3.169387052393818349e-02,-5.947348025122927567e-02,5.909873685467182530e-03,2.031875158273787133e-02,5.942350577098012843e-02,-8.728203181301992519e-02,-1.492039444703672224e-01,4.180032782948051723e-02,4.786293896367776329e-02,-8.454779341654224123e-02,-1.646321277634960334e-01,1.501728489374481446e-01,-1.291396316061461658e-01,1.279114930282685206e-02,4.142019041577152394e-02,9.499603807651643694e-02,-1.058293281065183500e-01,-1.233003138465437049e-01,5.410111121453418936e-02,-2.794207987680622646e-02,8.128767986402603285e-02,-2.485222908363881045e-01,-1.192761983837700712e-01,-1.250011591087960006e-01,-1.223518627192259761e-02,3.090103926566106773e-02,1.585695489823744364e-01,1.130554746982714506e-02,1.439891059133492635e-01,1.830013954928884357e-02,6.015445132677452178e-02,9.679200283085812040e-02,1.376816637114683939e-01,2.929423948712227971e-02,6.066296949814901224e-02,3.731808727743127219e-02,6.181286713115827919e-02,-5.027102934400368150e-02,-1.355428269811551623e-01,3.108235747001426574e-01,7.504810651889562423e-02,6.006581159726639974e-02,-3.673841543806001808e-01
-1.908373401428837754e-03,-4.367213170993158866e-03,-2.527147362622584464e-02,-1.295128372671464426e-02,1.020087628337951365e-02,-6.631265246592941975e-02,-9.125120011627421701e-03,-3.522596390677441153e-02,2.476589605426980992e-02,1.188311952267630950e-02,-8.225216016721401124e-02,2.762330595088034399e-02,-2.234476059444369563e-03,1.427168994219015219e-01,1.303994503645591052e-01,7.713670121216843756e-02,3.492754336236596896e-02,1.653591831798919831e-01,-2.339611699597554106e-01,4.869040039092794453e-02,-5.653599943300661318e-02,-1.304332154284570944e-01,-1.681247695681771792e-01,7.178163927050091632e-04,1.349040758121785033e-01,1.807360448605740688e-01,1.490472658547908613e-01,1.896615550264248717e-01,1.616228198536590333e-01,-6.622132503039190876e-02,-4.946825869438724321e-02,2.874234132284472776e-01,1.216496720103079077e-01,1.366605712103833026e-01,-1.278348029330640123e-01,-1.441429206663628615e-01,-1.173415802677736375e-01,7.692089906217842998e-02,3.650935800874396259e-02,-1.489479772669384805e-01,9.011735797418801708e-02,2.398109054113764516e-02,1.457356986037057489e-01,-7.207641791291638511e-02,-9.139649596929806663e-02,-4.137462335597407587e-02,6.349273650493418575e-02,7.628487706340915386e-02,-3.663555896145476165e-03,-1.150562393804323846e-01
5.772671308438091960e-03,-2.898835276574450795e-02,-6.398142458830171665e-03,-1.868805899105885349e-02,-4.999883300624425458e-02,2.103819956226645957e-02,1.195008877794917074e-01,-5.542094979243634111e-03,-3.328944360378360140e-02,5.627590221161114792e-02,1.277464955994633000e-01,-3.647602270445249317e-02,1.409086427908712580e-01,3.670588805289411172e-02,-1.408965671630642291e-02,5.445271830784163131e-02,9.260408407768368211e-02,1.022129304553453383e-01,1.225472297523148846e-01,4.355541492846267543e-02,6.261377021029471135e-02,-1.970066102951838483e-01,3.880463887416134294e-02,1.655132569752796601e-01,1.721083567489645472e-01,-4.189103267729887836e-02,-1.573729906339780549e-01,-3.713022634534695054e-01,-2.744076181834392281e-01,-7.711493154464944821e-02,-4.512326431083901745e-03,4.185164607558932576e-02,-1.773133264305351564e-03,1.273445437008685621e-02,-1.527643480069892090e-01,1.368007205229377909e-01,-1.698285933761314870e-01,9.324226836010909847e-02,1.487318717302714421e-01,-6.018446951166930153e-02,1.281105635009192195e-02,-2.136107324243938510e-01,7.366966600869821746e-02,-8.599548343016558127e-02,-9.590641505385162635e-02,-1.687924426256474930e-01,1.084156675682144966e-03,-3.836340088648441948e-02,2.658064442878084188e-01,1.669591983165275018e-01
-6.201585526061451255e-03,1.421821108390217657e-02,-9.406099104627158730e-03,8.075940929212934230e-03,-2.930774168225011231e-02,6.449004410381917185e-02,6.531527696051139115e-03,-2.379618409019818720e-02,8.218823104892244297e-03,4.315693037362126894e-02,-9.797303264652904020e-02,2.970995308196348883e-02,4.155962966378897068e-03,-1.583468316007735632e-01,-3.651114621395289139e-02,3.134181357491818559e-02,-1.000301962034174791e-01,5.512243927386270559e-02,2.937443378461085386e-02,-7.097958795871410487e-02,-1.275225522807041899e-02,-1.874893218699903996e-01,-8.158095467424887615e-02,9.397756626646787403e-02,-1.426041282663001730e-01,1.766544731841332982e-01,-5.376896361868842983e-03,-1.325795018627793365e-01,-1.008872244441896687e-01,-1.140172011878118341e-01,-1.332445237350023681e-01,4.925018150945500994e-02,1.298447434619774965e-01,-3.453465678718391219e-02,-2.100863497222052734e-01,-4.743443103017808138e-02,1.300148071779233250e-01,-1.562164698517754316e-02,-7.929372003626655036e-03,-2.433959920125655652e-01,-3.022582119289459190e-01,1.583054795557116701e-01,1.293610566447537802e-01,-5.454493375103489777e-02,1.496730449117535944e-01,1.591115176322418015e-02,-3.556905031568771691e-02,2.636978349308876507e-02,-5.063714884771670921e-02,1.495114114462849086e-02
9.036086990263845348e-03,4.300162167785561221e-03,-9.746165659869684278e-03,-2.090049085075375637e-02,-2.772641480067268918e-02,-5.326472975638449348e-02,-4.598591374102509177e-02,-4.033046816301974480e-02,5.547952961749934124e-03,4.565753290699546552e-02,2.210871259438699013e-02,2.861349769227395159e-02,4.452249306619336655e-02,6.011563770551713037e-02,6.800142093994143710e-02,-1.164113680880592000e-01,-3.948050360867785824e-02,-2.842540970569509481e-02,9.705473975565660771e-02,-4.625814272481461320e-02,6.008609532278176568e-02,1.552544885901062377e-02,8.309063883325490396e-02,2.016417842281905543e-02,-1.155245691443531342e-01,-1.287463960479405256e-01,-1.227365449012506743e-01,-9.497733918543919268e-04,-6.559713134066195994e-02,-7.232222308116263709e-02,3.110886410051118614e-02,2.290336181019207995e-01,3.986464833120534346e-02,-6.261492152676147172e-02,-1.065037725368939425e-01,4.015476319186205012e-02,8.593566717279883804e-02,-3.875468910021015456e-02,7.667188702214142171e-02,-1.580516081559355523e-01,8.111842054729574703e-02,1.077728846729266166e-01,1.439302016224364156e-01,3.548020973553790980e-01,-4.915539341211219715e-02,-2.357553518031151041e-02,2.162598678735661029e-02,8.189909827865188285e-02,-7.119418384356457352e-02,1.939797291834564619e-01
-3.367729152737175633e-03,-8.864161971034770562e-03,8.677697839307055988e-03,-8.929862906236579051e-03,2.009288640023309744e-02,-1.525070202289476907e-02,-3.157462477535855766e-02,4.202254200501231302e-02,-1.167111991321542232e-02,2.274812515600347501e-02,6.624940466470158329e-02,4.268163101875953325e-02,7.381913120875625844e-02,-3.629558591962281019e-03,4.851345459090292134e-02,6.863186458626213682e-02,-3.844581314522266258e-02,8.740979214827497221e-03,3.794103118218685594e-02,1.057777143815960136e-01,-4.793706019286484571e-02,1.673765242386823782e-01,-1.776470747784249238e-01,-8.862276282178507825e-02,-8.112008136493126242e-02,3.930804364619094188e-02,1.178027737679475939e-01,7.518352401946588881e-02,-2.401872505156039395e-01,2.954043446784646032e-02,1.500591433280194509e-01,1.805150394858922869e-01,-2.885611285788332661e-02,-8.296501961032759498e-02,1.068268361703120506e-01,3.871039890734305489e-02,-6.572633401992546143e-02,1.419927957108459982e-01,1.781321120044732642e-01,-6.579012781949852839e-02,-1.954492894406270054e-01,-8.967560981781605434e-02,-9.993377965859147338e-02,-2.928958689160797435e-02,1.140990370546572513e-01,5.848057692035835142e-02,4.476160468276003251e-02,9.949196592289367286e-03,6.064645660175274622e-02,-2.979238258746974566e-02
-5.504636661455045502e-03,7.674812704885567057e-03,1.117861336790924517e-02,2.924276092779984348e-02,6.608578154574054446e-03,8.903855075363102667e-02,-1.941430898998564372e-02,1.826193643846898279e-02,3.309091825718427082e-02,-8.047670536660798957e-02,-5.375513176702852169e-02,-7.158733893677288879e-03,1.976334993137481358e-02,4.897613155703223892e-02,-1.333472944103444302e-01,-2.805430744878320559e-02,-4.635518288840119461e-02,-1.345586910854216778e-01,6.834608359541763378e-02,-5.057428609301367617e-02,7.685821623402752656e-02,5.819165818570330023e-02,-1.471076323166748134e-01,5.152178064433955013e-02,5.199354259486049790e-02,-1.064786394354502175e-01,-1.189318067537334933e-01,9.112014278698390979e-02,-9.053822521459697903e-03,8.436696909138469841e-03,-2.037975927660859443e-01,1.724326165959694512e-01,-2.003351882969525710e-01,-1.220886645367635359e-01,-5.235578651168892872e-02,-1.251796977840577141e-01,-7.818038544215800967e-02,3.691264796297260009e-01,-4.385530943703006002e-02,-1.257375497598235414e-01,6.608831367145134861e-02,3.673858369987291483e-02,-2.191763860942651243e-02,4.978595879921713513e-02,1.460066119998170986e-01,-8.613068418867286802e-02,7.118720611259871101e-03,2.688507247340058554e-02,-1.841091518430596624e-02,-5.711301417494420163e-02
1.058623017269865775e-02,-1.648981362667317416e-02,-1.311050177430783323e-02,-2.269746500846619650e-02,4.327513555291601782e-02,2.745833858319491477e-02,2.896468795105917524e-02,7.506810284301457248e-02,9.556289799236405286e-03,-6.331369048405662177e-03,-1.713352017297973401e-02,-7.644811038669012404e-02,-5.742289755113920424e-02,-1.125666652070980711e-01,4.798477302605634598e-02,1.481486251835339128e-02,5.045955098845270048e-02,-4.232369556258690907e-02,7.599179493998807489e-02,-1.813278547953256839e-02,-1.002802325527255289e-01,7.004223194031725108e-03,-5.294818094360518451e-02,1.759187650946870130e-01,1.229165477380581156e-01,-1.156624341209495643e-01,-8.087021359623579320e-02,9.834301380678933668e-02,-1.778541347196851974e-01,-9.615352575240997124e-02,-3.476627105983213367e-02,-7.753531503677310588e-02,2.566544525509711905e-01,8.790988040760083777e-02,2.264997454389161002e-01,-2.386728284428765723e-01,2.576878239238965529e-01,-1.063716568531385270e-01,2.525827760295074054e-01,-9.054932115108706159e-02,1.214461120285060813e-01,-9.773579242627933317e-02,9.265199040306093536e-02,8.029526028725857134e-03,-5.446934154056615185e-02,2.825042328558309557e-02,-1.081162839546490756e-01,1.859717119393607121e-01,-1.750039170766582719e-01,-3.882713763019433884e-02
-2.267594638711816889e-03,5.595869025616039515e-03,-2.830534351381141199e-03,-2.950431523513312882e-03,-2.388819878654562662e-02,-3.306559317715562774e-02,-5.811507776203758864e-03,3.451269791919295976e-02,-1.602428080032293825e-02,2.913775032976505600e-02,-2.339404030054474670e-02,7.189344770884556132e-03,5.818498945010353030e-02,2.525766230945137095e-02,7.174268270200417907e-02,5.488106969504740612e-02,5.895818189271350568e-02,1.498787806640483264e-02,8.596701728614736249e-03,-1.119784172915739978e-01,1.137525005107225956e-01,-3.227058472783882193e-02,-6.773250816602481572e-02,-2.214428397060762277e-01,-1.198613268420778977e-01,-1.243966596979827199e-01,1.968419236629030677e-01,1.157658990765048496e-01,-9.307292280526506534e-03,-2.018452105392931628e-01,1.580640101037623924e-01,-1.315316858253255394e-01,-2.644149765021799187e-02,6.548126702784844155e-02,-1.270219823042536000e-01,-3.604739162595918534e-03,-1.612937572906652794e-01,1.312567786855797086e-02,5.123520907936683633e-02,4.460288861908374980e-02,3.922631749341626284e-03,-2.613710859966701938e-01,-1.309805758806396603e-01,-4.103714847650721809e-02,1.209342264056720295e-02,-8.061879396209163662e-02,1.109166176258205572e-02,9.911069195333022108e-04,-9.974881068038675414e-02,-2.817936681129670773e-02
3.877363100660659485e-03,-1.046999348706534674e-02,1.909922768422777500e-02,-1.221345326724853752e-03,-1.737267964798285685e-02,-3.704482572294854476e-02,-4.575929092438989210e-02,-1.246841984099677884e-02,2.023896701877838690e-03,1.055199545317230328e-02,1.045059789087029100e-03,-3.802359865797527022e-02,-1.114977215309328595e-03,3.961068264638040529e-03,-4.844995693289859406e-02,-8.364828147992765806e-02,-8.548676121816520257e-02,-4.457362770182504708e-02,3.372645979611563899e-02,5.529057587469656670e-02,1.306730305435426509e-01,1.533013848748403518e-01,6.420342415966714955e-02,-7.647726034386048699e-02,2.128510925408024224e-01,-1.995684045783252258e-01,4.664416683609361874e-02,-1.126862500791719623e-01,-5.904974949899780001e-02,-1.290321800510791511e-02,-3.617711715303739695e-02,3.025193712419005365e-01,1.669448820945646506e-01,-4.247262052066835825e-02,1.455773061234002241e-01,1.618888491187258638e-01,-1.516503081801884312e-02,4.432971312740408010e-02,2.287733693113576661e-01,-3.547670828060738024e-02,6.090996140558550820e-02,8.687301001096815745e-02,-7.771427843342129660e-02,1.220290947140585530e-01,1.162223476333867078e-01,1.490132159231799536e-01,1.165900651898685303e-01,-1.778388857835043191e-01,-8.230859576227317342e-02,-7.498545338741696709e-03
-5.574129034324572414e-03,-6.254551237924651022e-03,1.563702667088997730e-02,1.575336358794522619e-03,2.807330836408047231e-02,4.142933508173898827e-02,-1.929609083074106807e-02,-4.728465812288419612e-02,4.092040090941507363e-02,-3.784293343154859768e-02,-3.120518153277606829e-02,1.567337353998631000e-02,-4.868464870951161316e-02,-1.439102135111580520e-02,-4.759951977716130045e-02,9.831079288407873484e-03,7.820305249518906890e-03,6.024657270495815085e-03,-2.191477329262647017e-02,6.766787168200436020e-02,7.536546876636621151e-02,1.176740207656405343e-02,-1.542212551225531636e-01,1.106285909867614908e-01,1.627525787194666895e-01,4.983311941193852013e-02,-7.568606310112017954e-03,7.485929036956730231e-02,-2.283855049351807276e-01,8.223959939044384049e-02,-8.942774971933757644e-02,-1.995736506742701311e-02,3.434372272862153824e-02,-1.245546978800138871e-01,-6.324521829850196508e-02,-1.282697703378027909e-01,2.093969484548970084e-02,-8.898661492963448605e-02,-2.308245512014209244e-03,1.832315000036756070e-01,1.477322907157126164e-01,6.585929921343144922e-02,-1.197130837350343924e-01,-1.118200763516484786e-01,-2.108800777416872108e-02,-7.866130974680592136e-02,2.066111990886701499e-01,-1.511202216533209797e-02,-1.752256618214986794e-02,-8.093548001702814687e-02
-6.372395665931090969e-03,-3.277262589252001330e-03,1.294501169252633942e-02,2.363033317361304397e-03,5.789874479214631060e-03,-1.875960437235805675e-02,5.837858888259116197e-02,6.456925557574517971e-02,-6.132317004608452832e-02,2.880074329433287422e-02,2.570866181706776138e-02,-1.211194236363870302e-02,-6.966634412317661285e-02,8.644644176593407892e-02,-1.873236005498857271e-01,4.027291449174154325e-02,-2.329676561271254442e-01,3.367398615599265232e-02,8.351006229007179593e-02,-6.501740850436063535e-02,-2.143207811020036713e-01,-1.937217220025651276e-01,-1.007430107185766921e-01,-2.321526144906515751e-02,-1.628132552398701138e-01,1.087307699314347537e-01,1.768370206374382525e-01,9.637028131407690545e-02,1.389515176083482018e-01,-1.576784318508504812e-02,-7.025714864618115563e-02,1.305391477904005726e-01,2.465692418943464526e-02,-2.953063349242640578e-01,6.338832081463213752e-04,-2.833671878377881648e-02,1.722696591417850059e-02,6.681525649820774237e-03,1.478812293036553815e-01,1.858323679681430640e-01,3.606445516780742988e-03,-1.689046561873218111e-01,1.181539625119771147e-01,-2.106350010646020413e-02,-2.007649490467712690e-04,8.177980749738236743e-02,-5.160096487530538290e-02,-2.156602408590621300e-01,-2.096275454578472308e-02,-1.618395379974768566e-03
4.634720216838343447e-03,-1.278570337914093982e-02,3.830141407273982349e-03,-4.210132232657942501e-03,-8.836438473254158363e-03,-3.046468196947684989e-02,2.409210912377452232e-02,3.588152233587085273e-03,-4.827982725594751751e-02,-8.673458181464949179e-03,5.950604319913738692e-03,-8.624806259496983762e-02,1.280959305267824824e-02,-1.907220584065879090e-02,-1.058733588025920769e-01,-7.537901189114205869e-02,-1.079448884903789520e-02,-8.694519880862983108e-02,-1.263728887643258414e-01,-1.149270194559159214e-01,-7.682855990157862192e-02,-5.436897875707088872e-03,-9.878174723596117035e-03,-3.020973666116011369e-02,6.072838090618717065e-03,-5.126575794213955595e-02,1.136330937306419819e-01,-7.001624890647448196e-02,-3.577508256263844943e-02,9.386143574927256761e-02,1.896802891910550071e-01,5.427399920985266635e-02,8.295450386375372021e-02,-2.882822493472582681e-01,3.168920655790353341e-02,2.839841318975525608e-01,6.102932604476751788e-04,-3.924481148268293973e-03,9.653472581430169730e-02,-1.362005886085873758e-02,9.549114135299995032e-02,7.078328211220942523e-02,5.160037674337292907e-02,5.387927559138284972e-02,-1.168734968077754510e-01,-7.022634308799922953e-02,-2.321493185944164539e-01,7.433676367926503326e-02,6.669110193540120357e-03,1.577956564477547841e-01
-5.661790138206913674e-03,7.766445336718361819e-03,9.479185756577451077e-03,-1.105213264672996916e-02,3.332449053171333136e-02,2.312920904400274716e-02,-3.991153148143784107e-02,2.607903115524452115e-02,5.234248720907841435e-02,-1.275210637199672772e-02,5.327557887584300628e-02,-9.435379555066169058e-03,-1.257082390768824061e-02,2.733182499203813329e-02,-3.914578931073603787e-03,-9.904017249527789779e-02,-8.833947921957237270e-02,3.380935944716616931e-02,-2.727715196697995045e-02,1.087324024472546835e-01,4.116377499787761407e-02,2.581839011981956061e-02,-1.619513949308793721e-01,-3.103593307838054330e-02,7.937639928622619578e-02,-1.770000107953444424e-01,5.404725065227904135e-02,2.538079877072057511e-01,-1.067486800752755760e-01,1.403148718333192546e-01,-4.806192070169033187e-02,1.595520202972301460e-01,4.155159906747085685e-02,-1.820831242411576623e-01,5.480711232818266665e-02,-7.454977264474858811e-02,-7.675805767460361362e-02,-9.179118771518547659e-02,3.956045826026277634e-02,-1.284114575716737150e-01,-1.756011000555177115e-01,6.231441159115051059e-02,1.747291363003311560e-02,1.171980437289274479e-02,3.507750179569510407e-02,-7.250262992371209192e-02,-6.661496837648248071e-02,4.762616154523165168e-02,9.076237650652732580e-02,1.674636300833639777e-02
-5.605987850533031801e-03,-9.910361482286789842e-03,-4.715060778551955628e-03,-6.271549388442257920e-03,-2.179686057987072906e-02,1.881888303745163707e-02,-4.020383108888347110e-04,-7.089009015933471838e-03,1.118079705601868722e-02,1.868227175381019858e-02,-1.115108903161512316e-02,-1.401047653639929218e-02,5.168385920414562441e-03,-1.687651533069902537e-02,-1.037357536978322364e-01,1.730902798383753549e-01,1.389473232390131263e-01,3.253447341026980549e-02,-1.071352882456968469e-01,1.440011066515788085e-01,1.268263208648396645e-01,2.715147234454350078e-02,-1.200230246905815978e-01,4.840116169132291368e-02,5.821109522688348165e-02,1.523829808096489880e-03,3.940766077221150715e-02,-4.357515324904776693e-02,-3.236433162535591601e-02,-1.557215543636948363e-01,1.030777086831148603e-01,-3.844142253392114628e-02,2.436312663095580866e-01,-9.541895724904772558e-02,6.486753587122214004e-02,9.631743039937695761e-02,2.022131849905473011e-02,-8.096089710933027095e-02,7.882180550923059692e-03,3.486957221882526492e-02,-1.373635281354788629e-01,3.788616753859284092e-01,-4.997797664538385087e-02,-1.778671276187243910e-01,-2.579722304806827265e-02,-1.076811933799141363e-01,-4.639971454858629607e-02,-3.007009509559002355e-02,-1.603424033017200878e-01,-1.708082079440595424e-02
2.445884758184398676e-03,-3.242037450625735642e-03,7.408389319057635813e-03,3.442900919037228304e-03,-2.002418694653633480e-02,-3.441696693786026884e-02,8.534743142463049187e-03,2.909100979754714392e-02,3.674816786350452308e-02,-4.027364162109966367e-02,-3.604013713618976766e-02,1.426767685858906266e-02,8.870477619899745994e-03,-3.026890935030868840e-02,-1.075366769284769736e-02,-2.930370379196142044e-02,5.733909013133350885e-02,3.935979013841426483e-02,-3.294608102352673817e-02,1.590732502456027042e-02,8.864296758708202495e-02,-4.529183797921591120e-02,-1.741512882721381328e-01,1.417103073493342358e-01,-1.785045796176344679e-02,-1.024138068046336891e-01,-8.116304049721656880e-03,-4.037204168948262117e-02,-6.453693536094183558e-02,6.596206925889648576e-02,-7.653043806843040642e-02,3.959693701857593118e-02,2.304185713947124459e-01,-6.091233347514407592e-03,1.596865809624627985e-01,9.150140879712996556e-02,1.036606269895480326e-01,1.990203619997309714e-01,-1.195985964079856190e-01,2.852427696958248493e-01,-6.082383820938812302e-02,-8.497552972975619401e-02,-4.527550266878813817e-02,-2.682113736090142586e-01,4.984944024810755714e-02,1.168792433778686746e-01,-9.264957844315341307e-02,1.959763054081779532e-01,-1.002887621683534736e-01,6.515061171668248829e-02
-2.658475759672059621e-03,8.404419227116096541e-03,1.434075857375892091e-02,-1.391348493226900662e-03,9.326171169474161554e-03,1.838870801988885459e-02,-3.526115280589520173e-02,-2.440349064297254317e-02,8.115049191960420696e-03,-3.899245684259771555e-02,-9.357106855369837911e-03,-4.708937892372653394e-02,-4.850033381974425822e-02,1.162188090482380448e-01,-7.254084438834813853e-02,-3.791600598019949104e-03,-1.817158536031269339e-02,-5.920596351248320899e-02,-1.003433628465874305e-01,8.308387257645087620e-02,5.401764253858146181e-02,1.117050600027085366e-01,6.793037353211880958e-02,4.957490920231432535e-02,5.851112967376561128e-03,-1.369229182811593504e-01,4.391277727163711564e-02,6.951808919482875548e-02,2.549317913026458160e-02,-1.510775888808641998e-01,-1.935563883152656706e-01,-6.269786856866162508e-03,2.445556531812027035e-01,-8.445884212276967562e-02,4.849527771460387937e-03,-3.806131533408432799e-03,-1.805802655934736212e-01,-1.932416211151763707e-01,-7.585568821328610156e-02,-9.949562675642856235e-02,1.367194190471145987e-01,-1.653648944266175314e-01,-6.984247678215974031e-02,1.332496956776654251e-01,-1.844797404736922553e-02,-2.466467852985315332e-02,1.578665828424772044e-01,1.691463013745936883e-01,-4.667582187529319138e-02,-6.937493663026429724e-02
5.952417316268059262e-03,-1.464747248736706113e-03,-1.008659534102192279e-02,-8.731888157297284722e-03,-8.254331744583648378e-03,-1.045825164186474192e-02,1.055735257525884652e-02,-1.619958388341176045e-02,3.939298274588778903e-02,-1.793022450933795531e-02,-3.564103998814110996e-02,3.508856066167037602e-02,-2.710500527516101696e-02,2.987459991029233972e-02,8.974661764914804163e-02,4.436584795018872276e-03,3.482491982241729678e-02,2.307063886608147832e-02,5.093444322776381067e-02,-4.867461068766892884e-02,-2.083212214951937064e-02,-1.010377604661690243e-01,-3.775242904829191615e-02,1.919315704614905915e-02,1.545515695887915153e-01,-2.401058660387637295e-02,-1.426754722358443972e-01,8.593533594321051128e-02,4.975592061653014847e-02,-9.326678458424557394e-02,7.335369595753288285e-03,1.134084189320758856e-01,-9.646820920334175931e-02,-3.153423905760255330e-02,1.849368609290935883e-01,4.978958641585616574e-02,4.642764804560214204e-03,-3.513197763721254835e-02,-1.221954000445211186e-01,1.428409336552104170e-01,9.964028513078537763e-03,1.419167622751374980e-01,-2.430525688596009426e-02,-5.259309531544502370e-02,-7.433942210434585363e-02,4.932183178183432992e-03,-5.269062253325969281e-03,1.742115175263253546e-01,1.499209520168251486e-01,5.058454548520333049e-02
-2.282113789160664877e-03,1.322274301523396114e-03,-2.810065282627143089e-03,8.563648668266924530e-03,-4.711651401785966337e-03,-5.315780778584548163e-04,2.049484495547671328e-02,2.802734968464167670e-02,-1.077395134731341624e-02,1.745434966674429961e-02,1.716778516428235299e-02,1.210654938941781861e-02,-3.458581878727479131e-02,-6.643177676567640910e-02,2.785904079155511817e-02,-1.300996111607058414e-02,4.106836277506484972e-02,-1.721208219983535320e-02,-1.290050324990017205e-01,-1.844254854300695495e-02,-6.409615779183497342e-02,2.939331489107366996e-02,4.939079133624057864e-03,-4.610447540854240023e-02,-4.755478465368484509e-02,4.844626366812219975e-02,4.243595703683807757e-02,-4.131517500293220568e-02,-8.045961054074779462e-02,6.500990664952992215e-02,-1.999859800329217840e-02,-1.276712308531630438e-02,6.488566895384556554e-02,-1.898631838228812332e-02,-2.672371405284360568e-01,1.869843036048922658e-01,8.536859271276485417e-02,-7.197607350788309821e-03,-1.087103116737963976e-01,-2.279579591702270425e-01,-2.194257944569971003e-02,5.066703299296949209e-02,-1.841584740572746182e-01,1.802166722055335499e-02,-3.351473947262034736e-02,7.947518671289416359e-02,7.524380658592179361e-02,6.862431617155553831e-02,-1.295093087177486280e-01,-6.554254095482890674e-02
-3.791786937588793177e-03,1.165533363243610558e-02,-3.327737423818475856e-03,-9.860472546309370905e-04,4.984010705008795790e-03,1.847913511515374488e-02,-6.003545123204082762e-02,1.088984343476389824e-02,3.920330527587351233e-02,-3.536183882244889332e-02,2.794346042975015890e-02,8.647267917260908002e-03,4.987517424169074509e-02,1.140361175636090130e-01,2.334964174147047961e-02,-1.298374404279829461e-02,-5.360043539050517863e-03,-1.874272706743106143e-02,-8.604922767313815876e-03,7.966306684597919407e-02,-5.438147189934251433e-03,6.695800723164629931e-02,3.356386965850354648e-02,-3.896761762546498142e-02,4.708304920868173343e-03,3.441481438224031075e-02,-1.000937549505814400e-01,7.209011127335074320e-02,-5.121945737004258981e-02,4.614316646525837978e-02,-6.756055235774058310e-02,-1.911913425972630032e-01,-2.370582357770346649e-01,-1.623676779046956398e-03,-8.832562643668148694e-03,-5.614575451066550205e-02,2.097582781565299204e-04,-6.064033972725271782e-03,3.779601468159322075e-01,4.290120694636113952e-02,-1.348381535167332002e-01,2.860538651369366400e-02,-6.100063371676814339e-02,-1.329712098111112684e-01,5.323701571502148511e-02,2.047093787675035859e-01,-1.889513981509429730e-01,1.159778588780528974e-01,1.723480830142270215e-01,-1.300136557664766934e-01
1.952473657614852906e-03,1.795305447555820607e-03,6.622161167738128615e-03,1.668779357655006748e-02,2.310817251783478239e-04,2.273512073838232506e-02,6.784461581159215160e-02,1.302995166761462299e-02,-4.676328733212848504e-02,-2.272328601051171876e-02,-3.116345985940908309e-02,-4.951746402799155067e-02,-2.049648928504483811e-02,3.141587453727209128e-02,1.042665301228068303e-01,2.640661987362707963e-02,-2.289115455824683974e-03,-3.549384830205812302e-02,-6.812187658986709748e-02,-2.350268236898871432e-01,-1.242452977863107849e-01,-1.643108554518202535e-01,-1.215129301805659146e-01,-1.104295971663409176e-01,1.049519705202084652e-01,-1.774164985721388699e-01,-1.326616318766428090e-02,1.175145036221986045e-01,6.283453902035346372e-02,-2.721531441259096296e-01,2.912832206676849722e-01,-8.451865144093753668e-02,-3.496569670431270982e-02,8.730017731409447923e-02,5.926773217014124490e-02,1.000771883942698365e-01,1.935858487755719448e-01,1.853952316295882918e-01,-2.016763903474952380e-03,-2.816946777502888494e-02,-9.721195145901367907e-02,-6.684909206158901052e-02,5.807812222191106877e-02,-5.549986156536950571e-02,8.527857076711162221e-02,-1.164619055149428151e-01,2.499507459856751407e-02,7.673842280357576207e-02,7.714191601788905617e-03,7.877078984505880843e-02
3.756960579432747603e-03,-3.494136910524122796e-03,1.931737243733901502e-02,1.121355801091606860e-02,6.197640767393057873e-03,-3.600734667409376429e-03,5.853076901248937397e-02,3.803056931281196401e-02,4.425413885802037192e-03,-4.083220556335731555e-02,1.428194109565786817e-02,-4.045496004566867705e-03,-7.333496524695155838e-02,9.605448385918353201e-04,-9.635892501451649717e-02,-1.585323432568171848e-02,-3.561306185436183269e-02,-7.354585450966498461e-02,-4.673991073634564675e-02,-1.853352769140463249e-02,-6.452192204073260717e-02,-5.825568565186774184e-02,-4.617920370699283433e-02,9.758533236205167716e-02,-1.525117185846137369e-01,-3.786913948862059148e-02,3.922139570053233271e-02,5.175249301021149495e-02,2.456353941355789161e-02,-2.407615941541371707e-02,-1.871309723142149939e-01,-3.550360109793444102e-02,3.395807705764833373e-02,-6.958056182050087468e-02,9.579172160681953541e-02,9.796306639126622917e-02,8.601972164385451869e-02,2.467927018439345366e-01,1.086849334991452504e-01,-1.464145297443546767e-01,6.341659260032890544e-02,-1.453522961086141652e-01,-6.502482820410396269e-03,-7.989396782889800208e-02,3.664578534132386517e-02,1.527942573950865079e-01,-3.288104376576388155e-03,-1.069039000052138394e-01,-6.120506438936423876e-02,-1.033595061990493225e-01
-9.520351461582882190e-04,1.957969175606267057e-02,-4.311813901982390965e-03,1.418798157942016214e-03,7.195070674130573871e-03,2.296210042614192648e-02,2.084615928096568774e-02,-1.358347581288957273e-02,8.857727607936202383e-03,3.078449946739942461e-02,-2.507061958556896369e-02,-2.164692572625764866e-02,4.873021557992406570e-03,-5.098508189780341648e-02,-1.772602382891361530e-02,-6.670677745687444982e-02,-8.809740659780022909e-02,-8.516440397826171432e-03,4.331457830111469509e-02,7.627784894533909399e-02,3.334630722879284442e-02,-3.269712528975772525e-02,6.588553645425711258e-02,-8.576446753146168417e-03,-3.799594435764658967e-02,-1.453152086082389743e-02,-2.378737362572353950e-02,-8.671439558776666834e-02,-3.187253817182819637e-02,1.051346255749764785e-01,-3.390090478824583919e-02,6.383361359814841707e-02,2.163527321066676112e-01,8.376098081004944296e-02,-2.189292167620658924e-01,-4.516569841428911408e-02,2.108680490093880477e-01,-1.571147646568049894e-01,-4.376033665443045811e-02,9.334551612377968433e-02,-8.982425111432548737e-02,-1.791946296569552899e-01,-9.380246067272345056e-02,9.221697166052399142e-02,2.393606695300962428e-01,-1.190980269102902972e-02,-1.369659226389827178e-02,6.878699697892863563e-02,1.157737506996072696e-01,-4.588573622638429661e-02
-7.377816881867600360e-03,-2.590132895315503357e-03,-6.883863327413368600e-03,5.146382263668153626e-04,3.056623368235115989e-02,8.298952905425814250e-03,-1.192882605684018188e-02,4.825094800600194904e-03,3.603456172579502792e-02,8.475067474042854640e-03,-1.487990383134653316e-02,1.737677260627853645e-02,2.957063221362734792e-02,-2.028857828804899940e-02,6.062825636639679328e-02,-3.903170348257592459e-02,-1.079695148157891645e-02,1.416676208773867685e-01,9.030380505417590770e-03,-1.881086535243003260e-02,-9.527458066065665893e-03,1.794954805874877241e-02,-2.297433019862841347e-02,1.283050724141567359e-02,1.057603658203214864e-01,3.690166131753511158e-02,-1.967651316532025713e-02,8.320956227040796072e-02,-4.344935033341060238e-02,9.331471857771994616e-02,1.058988966836526269e-01,4.193557514997028196e-02,-1.361213159717406529e-01,4.028087227602847320e-02,-1.874093648389529854e-01,8.686332903882305542e-03,1.972761312201536943e-01,7.505113653134261320e-02,7.334525801231116249e-02,3.705933002974900331e-02,-3.262367079961120409e-02,-1.292669485521357256e-03,-1.881641059778235425e-01,1.347553655937960143e-02,1.686549823788330293e-01,-7.167070897620746173e-02,2.057834869696059665e-01,9.447498257778373654e-02,-5.867890463425946834e-02,-3.171142761631356999e-02
-2.163385311536889042e-03,1.627704884955991430e-02,-1.495165975983573856e-02,-8.280929108227124552e-03,1.368734402600384550e-02,1.773431929740334687e-02,-3.338220572957120713e-02,-2.263645131767752158e-02,-1.171808374283686560e-02,-1.879032940495183046e-02,-4.134290109084404891e-02,5.164831314301873005e-02,9.635508815613727518e-02,-4.725135090032544366e-02,9.816928809960343005e-02,-3.436626682235002350e-03,2.359664912611807858e-02,-5.330040687177606956e-02,2.114748215496901895e-02,1.160413454577070985e-01,1.539770812473935380e-01,1.939407242337749804e-01,8.080738404845527398e-03,3.453037809567448269e-02,4.954568539586037823e-02,-1.049284089029407369e-01,-2.766091697399660973e-02,-2.974560139923178304e-02,1.126856267001469236e-02,1.168681718718241613e-01,4.276358027006156928e-03,-1.545543005763150290e-02,-6.625271383952498205e-02,2.744668657221429608e-01,9.436401054804664790e-03,-2.259807025028705840e-01,-1.135052849872804637e-01,4.162945586799249309e-02,3.840603302062220448e-02,-1.364090182514048066e-02,-1.032357508428936449e-01,2.279304851268246224e-02,9.026638309795917414e-02,-4.048658849264662185e-02,-8.185674775190950048e-03,1.712061330635471224e-02,-2.269101629363224903e-01,-5.720623158097332128e-02,-3.047491703104698302e-01,1.088397830486454582e-01
3.666575114863265209e-03,-4.619466340590361493e-03,-6.326721487129756231e-03,-1.910610227830724164e-02,-3.134569330495270284e-02,-7.155138849344094831e-02,-5.221448654449369065e-02,-7.677216217831735884e-03,-5.651410983887990291e-02,4.827302824180656343e-02,-5.144998566185545949e-03,3.626875873066405520e-02,2.515419699173246024e-02,8.314415471985626277e-03,-3.751168186490334931e-03,-7.673960823189281133e-02,-3.195170262417453694e-02,-7.020839618788668468e-02,8.565843452678910397e-02,-4.175632552582312501e-02,-2.228471424963436587e-02,9.665993348799649387e-02,1.241311490185887101e-01,-9.583253404902385142e-02,-6.025442083232387946e-02,1.370337397932848977e-01,4.827152509486816456e-02,-1.084128126043036044e-01,-8.846609177982465988e-02,-1.215592895557604525e-02,8.906778890365207868e-02,2.061692507710310637e-02,5.285544551307817807e-02,8.951856778342005827e-02,1.540936145790682277e-01,-2.468258520924310195e-01,-1.105184805511672252e-01,3.782866505755436842e-02,-2.745687518654265497e-02,1.561047697504086007e-01,1.391514876591263827e-01,-6.976555567095696353e-02,1.616185921119006053e-01,5.608430961351121291e-02,9.087338411881119848e-03,-1.917898614977660288e-02,-2.861668343367409356e-02,-3.287317726545976870e-02,-3.239679602169007883e-02,-1.241808547048762479e-01
4.854337563854678461e-03,-6.435550209567815309e-03,1.483352713698981966e-02,7.086465560790237289e-03,4.424505742168485106e-03,-3.443152550858691319e-02,-2.321985050348559024e-02,1.029599954969961928e-02,-1.455391265663648001e-02,-1.029869763584487924e-02,8.423930130363136565e-03,1.013729095871861857e-02,-1.575061380442346545e-02,-1.681955025877428928e-02,2.362261216389400023e-02,-2.460248619318609366e-03,3.166368494139483458e-02,3.541727918718493018e-02,-9.583615766698776184e-02,-2.531289789884929448e-02,1.174745375278403170e-01,3.963810982827651631e-03,-9.111162815776790991e-02,-1.664143381835670593e-02,-2.946613407135186685e-02,7.334690488035636169e-02,-1.480490670080736445e-03,-1.288055473756599401e-01,-3.041410051925021868e-02,-2.362709589904738242e-02,-6.755240092992197132e-02,-4.959090678135602559e-02,-1.518670618219773727e-03,-6.736537754869785510e-02,1.087205286105655394e-01,-3.681424525070702003e-02,-2.438533964985834315e-02,3.333312198492748013e-02,4.251995539633529608e-02,5.170626671951880637e-02,-2.115244972372426757e-01,-5.173852651983307238e-04,5.480319650503547024e-02,1.173247330835454072e-01,-2.718051326788587518e-01,-1.185194114299967932e-02,5.423751556426638365e-02,-2.438623666185498473e-01,-2.890341298212269899e-02,-1.071770481763079791e-02
-6.816735068285977982e-04,2.789928688926176636e-03,-8.385496577973586621e-03,-8.640488644790510903e-03,8.750807343835117699e-03,5.993260726869878777e-03,-3.613118358872927788e-02,-4.425899077794295117e-02,2.162618480143114683e-02,-4.644019905218814415e-02,-2.209198847932775100e-02,-6.044727807386927887e-02,-1.731829471804200923e-02,3.401219984934322760e-02,-2.974930995097216715e-02,-3.695038753690318284e-02,1.722214492738005642e-02,4.713674349231333077e-02,-5.916068844532114401e-02,1.042960513672427231e-01,9.156184153949997739e-02,-1.228148283668528823e-01,2.404283331965989187e-02,-5.297549034932632663e-03,-4.791158748111097598e-02,7.566306408950672011e-03,2.053724324237600138e-02,-4.701702545789171461e-02,3.324050397598515144e-02,-1.864080420405035687e-02,-4.677142654735878813e-02,-1.423422145900376801e-01,-2.460717069633753390e-02,-8.346986546005158436e-02,-1.803159808069248471e-01,-1.146850259472414063e-01,3.949887232381682489e-02,-1.902202001923284924e-01,1.566798380120565382e-01,-9.510791170356563962e-02,1.005910504107236647e-02,-3.599282348317771330e-02,-6.717917962377423224e-02,-9.785154492032163698e-02,1.181987907804809418e-02,-6.498408177727535429e-02,2.554750737809924344e-02,-1.589576048095618366e-01,-8.392117216415603820e-02,1.328449599953305041e-02
-2.464783628555437638e-03,-6.199033561189601360e-03,3.770593643566164804e-03,-1.331250193895088668e-02,7.467255301596783905e-03,7.440812111616879575e-03,-2.241172052112910124e-02,4.590235523067150158e-02,4.413704674901575663e-03,1.942211418744043544e-02,5.177262700215198854e-02,3.543101713177858325e-02,1.080234415299964786e-02,-5.298373814027906165e-02,-1.987413755406221456e-03,-1.096884346084332773e-01,-2.058719210887274744e-03,-1.623956880002025427e-02,-4.968055852705989539e-02,8.126221824353135892e-02,-2.284519178222049057e-02,-3.430756141266117637e-02,4.558638504554262533e-02,4.855282196191382932e-02,-4.264901764825449609e-02,2.497346936619657121e-02,-3.144830471316723865e-03,1.083010544336436565e-01,5.008008386869597373e-02,9.732631832390206683e-02,9.826454919651481101e-02,-1.043142921760330383e-01,6.564682371345256784e-02,-6.719225493549276645e-03,1.695937848707525925e-03,-1.099527002553898902e-02,4.172270200844047094e-02,1.118239406726924540e-01,-1.040628608145999778e-01,-1.153924070706317528e-01,7.237186613573509675e-02,-6.554342318822797830e-02,6.055239804432045042e-02,7.257791557129185389e-02,4.087914812382839602e-03,-6.644456861742792375e-02,5.636379233766419805e-03,6.217597079769933421e-02,6.108924632394026333e-02,-2.930985318766214653e-02
7.498921940195504322e-03,2.408016264254276683e-03,1.971826132761764076e-04,1.319745620654562239e-02,-4.835360723932722281e-03,2.240483758399728492e-02,2.362037553552473815e-02,-2.017815494935561518e-02,-3.188858604666278823e-02,-2.666634003965704866e-02,-3.579317798154391106e-02,-3.119878334120156083e-02,-5.524415734071987626e-03,-1.999813402267903995e-02,7.593813621728964791e-02,2.202078076500787671e-02,2.826545692238841695e-02,-8.065959050600869998e-04,1.710283173891686203e-04,-9.886562602567543212e-02,6.295278776513937857e-02,-1.079334006001687329e-01,-7.797995796868212315e-02,7.689312453272881265e-03,-1.006122200224811303e-01,3.743792586595109245e-02,-1.217203629599431791e-01,-9.042381495300103045e-02,2.372763931746813687e-02,-2.593978782898273550e-01,-1.406406215038951413e-01,1.026100115870494933e-01,9.341601919857582537e-02,1.566425467235657842e-01,1.028499694402767450e-01,7.659378883599575472e-02,2.020590000380109719e-02,-4.312996271554761507e-02,7.775276486819851507e-02,-9.809112350515047929e-02,7.629591393351189965e-03,3.925806843385536843e-02,-3.665191897374125984e-02,-2.252743434992625360e-02,-4.909554509886734919e-02,2.542239960279293887e-02,-7.114519454776493945e-02,-9.691005669973939973e-02,1.155372652251139137e-01,-1.576470433726494536e-01
2.042404938197938877e-03,8.502671481234375106e-03,-8.488194207220725943e-03,1.241741410083744722e-03,-1.573886624279208918e-02,-6.330758589965971607e-03,-8.976785257299267975e-03,-4.813292238814758164e-04,1.193939565064801138e-03,-1.288857503772111897e-02,-2.739788149328983152e-02,-1.560596320421118489e-03,3.285737195081962769e-02,1.314248838047984633e-02,-8.220771799270687810e-03,-1.413628637121378678e-02,-1.069392802212700867e-02,-2.034318136571506078e-02,5.667250309212602810e-02,-1.180366896215758604e-02,5.237909181085043109e-02,-2.571789792475993527e-02,4.643193237168806616e-03,-2.910800174916687924e-02,3.238232539575977564e-02,9.534145771562030358e-02,2.057958593167662914e-03,-3.898959349500491500e-02,1.880423267171170976e-01,4.899787087821634579e-02,-5.243683071321408873e-02,7.628657416794695778e-02,6.323173878247706492e-02,-7.096697887904264423e-02,6.313789084025434040e-02,-1.459742703168243894e-01,3.533522145899059552e-02,3.342255612576544577e-02,1.131236654453494223e-01,-8.380217185367505595e-02,1.439191856347211140e-01,-4.966247810136979052e-02,1.196195563014090940e-01,-9.180963848027916263e-02,7.065978437413418523e-02,-1.316060083421299320e-01,-1.068895181187527604e-01,2.822778174301342896e-02,1.679050715575386155e-01,-7.005636948828182498e-02
3.113748503165666200e-03,-9.930735254703639686e-03,3.895807173828384567e-04,1.060213764008487679e-02,1.798680352388565620e-02,-1.927532299833111668e-02,1.940801969144932693e-02,1.841912460816609934e-03,-3.751766209768333474e-03,2.283094279667709572e-02,-6.900822827301546225e-02,-5.800808850188601817e-02,-1.057782137536065065e-01,-3.765442627424585298e-02,-4.550078992502413523e-03,4.041889280665211109e-02,1.722887842034731901e-02,-8.947713343919633244e-02,1.856161066795094247e-03,2.388972594675538297e-02,-7.954311109999433194e-02,2.932030210272514037e-02,-2.225178675293840516e-02,-6.852953777394713876e-03,1.343049198957769752e-01,1.044830867224319920e-01,-2.076315030219810093e-02,9.186189991084045547e-03,7.813628789820635523e-02,2.052043423391330390e-01,-4.873394829835799025e-02,1.474572574181504808e-02,1.130750307815368283e-01,1.673968164132421388e-01,1.063622949664963652e-01,1.707771624170957014e-01,-2.054759819338276144e-02,9.105975322302957420e-02,-5.638843671433329402e-02,3.709458131903162204e-02,1.008728222696701343e-01,1.284346316331071852e-02,2.299942682055471643e-01,3.396863871305969701e-02,1.100010810903932768e-01,8.725367875770589920e-02,6.891154316363344579e-02,-8.340771115942148539e-02,-1.583914118426365050e-02,3.499157740431185076e-02
-7.060285790772963515e-04,-4.997589958413545773e-03,-2.609317458355081207e-03,1.221395453541186064e-03,-9.013902572601879826e-03,-4.501815129109974778e-02,-2.311564443372711788e-02,5.562940041237834921e-03,1.822362345667893901e-02,-9.150120828578913248e-03,-4.717922799606441564e-02,-1.980863539274450641e-05,2.604120390224029524e-02,6.476749674525973666e-02,-1.495827454181426937e-02,-9.283902995180175199e-02,1.112515936493893229e-02,-5.573564425685639118e-02,8.435914646101817793e-02,-2.227527257295626451e-02,-6.501866279296153461e-02,-8.134973378421481160e-02,4.531611322388252872e-02,-6.973406215532346186e-02,1.674931365590476284e-02,1.749524056110757231e-02,3.642223533487769227e-02,7.085103632304495802e-03,2.728229218490942076e-02,-8.595682870185847313e-02,-5.018625954958377822e-02,9.026817517508288480e-02,-1.625260698299296758e-04,5.952395289495971548e-03,5.860971519024461146e-02,6.443717145777208555e-02,-6.537683517501796659e-02,-1.097983206286461400e-01,-1.366088914504654250e-01,6.297783605828148612e-02,-6.409122423367760724e-03,9.665537609188064316e-02,-3.816878509991183943e-02,-2.416384460767344033e-01,1.402256970545291137e-01,1.195643460889361659e-01,-2.642111227578565480e-02,1.814324311345122398e-05,6.680324175390925379e-04,-1.505432739408293225e-02
7.550608747742031807e-03,1.016754316013400092e-02,1.103204972560827349e-02,1.164044561253782702e-02,-6.592787471630162134e-03,1.420727934413246359e-02,2.911884038413810674e-02,1.577872540117846931e-02,-1.127188348421692210e-03,-2.381378731728076709e-02,-2.901626316865228705e-02,-2.925989026292872414e-02,-2.354305486338201248e-02,1.923860452515616104e-02,1.489235825748903494e-03,-3.191288318271439522e-02,-4.815215031230772602e-02,5.967933238674219196e-03,-1.301328507700393600e-01,2.601718494199768000e-02,-1.059639732695168320e-02,-6.555533156673301609e-02,7.996718089565200624e-03,6.467039946566855227e-03,-3.877090971976950018e-02,-3.246006510394599393e-02,-6.267582111541557255e-02,-5.759414843294640568e-02,-3.347030354195086599e-02,-1.046362406077470941e-01,1.909868789673793699e-03,-8.468532481722407246e-02,-3.529823883604456258e-02,-2.065044005608836913e-02,2.719117776223783228e-02,2.541544598059699428e-02,1.872306203999867802e-01,1.012244172318650798e-01,-6.663891545656481716e-03,1.308485363032254600e-01,-1.391864487688533325e-01,1.278380941372692647e-01,8.150268017053485803e-02,2.030165287957398645e-01,1.450071696071866811e-02,1.707006216194144887e-01,4.096378991539678660e-02,-8.500619075655102552e-02,-6.362601903350377508e-02,-1.110558509677669892e-02
2.288614625342977934e-03,2.943247171654824867e-03,-1.163617601012799374e-02,-1.032800493751685582e-02,-1.108193324449198956e-02,-1.260220326160721438e-02,-1.367760231703070949e-02,-1.549090116080574682e-02,7.426191051341417618e-03,-2.246044961586913732e-02,-1.029649182688144142e-02,-1.776145549629653056e-02,-3.939693943348824418e-02,3.809902179601713790e-02,-4.382723173331290467e-02,-5.823395420763922969e-02,-2.857777611006695473e-03,2.992749206636903178e-02,-4.337257658262231447e-02,4.933903641968547665e-02,-2.582177476076289585e-02,-9.806346981996200141e-03,8.771459987724283119e-03,-2.536187521576030446e-02,-8.270375713077342261e-02,5.826624151531038798e-02,8.083364598605090323e-02,2.292913417972383423e-03,-3.061112282283401723e-02,4.348378923497313309e-02,-1.247359926663091020e-02,-1.389819813912487878e-01,-7.717044699337691216e-02,-2.224639741297448209e-02,-7.753520942624531065e-02,5.301824508595670560e-02,1.437339233443502180e-02,-4.923577546181139020e-02,2.186768634277222456e-01,1.998330270248988016e-02,1.116662542664025731e-01,1.520323959693662685e-01,2.795353944324875661e-02,-1.112070636742785168e-01,-2.179799834876412420e-02,1.551004526248488669e-01,-3.143442678917295063e-02,1.599434942488946187e-01,-3.232797808751181751e-02,-1.400406452319709338e-01
3.905129630447733320e-03,6.600030528410437587e-03,-1.688398131610333334e-03,5.159655913242426097e-03,2.957925295751535379e-03,1.827741614617039295e-02,3.419935972941341717e-02,-2.104462255119643813e-02,-1.543142965828593269e-02,1.106124020471829957e-02,2.147561752985881200e-02,2.071796711515293613e-03,-2.312570763733359444e-02,-9.341041324782577149e-02,3.828279195335082281e-03,5.370322157253681200e-02,1.228998564277850904e-02,-7.224969136923277413e-02,2.607806046419429771e-02,-4.371057889142464237e-02,3.242794563578931671e-02,1.415217855783364453e-01,4.217979080211619464e-02,-1.082144439969057736e-01,5.771239387509793928e-02,3.422588318059779228e-02,3.382642699396707590e-03,-3.615561059954246204e-02,6.421176163727715380e-02,6.739657632791382080e-02,-2.411238141638715610e-02,-3.654856036678874598e-02,-6.554882701225150932e-02,-1.879317892963344727e-02,6.067869236612256217e-02,1.244746789781974033e-01,5.526618131557597957e-02,-1.315004991318498295e-01,6.384164318959334450e-02,-4.240580072534072542e-02,-9.470843234601939928e-03,1.179740026337768033e-01,-4.462852780831937094e-03,-1.963046002441873675e-02,5.153549842688546351e-02,-9.448137689894237079e-02,-2.170465906726311636e-02,-2.230601918888140411e-01,2.697865931953853658e-02,-7.195141215690536995e-03
1.306037941373957428e-03,1.546594385841911033e-03,-3.126165513542765798e-03,5.875824075685995643e-03,1.475864206489572138e-02,-1.432992713794356901e-02,-3.144320144088755611e-03,-5.677681543544393049e-03,1.933777542942506297e-02,-1.154111642759374050e-02,-4.093297445830144932e-02,2.355117242635479391e-02,-3.982688571206453518e-03,8.162348657523546547e-02,8.754544019638005325e-02,-4.707029561991261414e-03,-3.101153676986263819e-02,6.135145457044428180e-02,1.707888106344994730e-02,-1.202114191580131025e-01,-8.148388761438127292e-02,-1.281783301044913115e-01,2.765490241577072891e-02,3.271348462627640501e-03,5.126494514048270806e-02,2.702032049013969317e-02,8.276581494190979674e-04,9.963592723157647935e-02,1.005509579287800215e-01,-1.193429693633411837e-02,-1.127933277767971254e-01,1.039225297686815902e-01,-1.216455434285481224e-01,-1.784515786874468074e-02,-5.622465389731078067e-02,1.003019003434076420e-02,-1.256732559884003730e-02,-8.533938116046090039e-02,1.915635090640584182e-02,6.659831348779005067e-02,-9.269964954107548505e-03,6.175459994113455253e-02,2.184026609216337123e-02,6.071823038471374501e-02,-1.038375320254252832e-01,6.862557677087734176e-02,1.034611612445099776e-01,-5.533227882413289944e-02,-3.045860185292231792e-02,6.673008068772549872e-02
-5.205659016859575869e-03,4.713579093251827994e-03,9.755807401116081343e-03,1.026288627776593756e-02,1.787584132300982717e-02,2.865225955757251877e-02,9.033419517743614471e-03,2.285841081564518595e-02,4.519799616126886355e-02,3.258976030865149321e-04,3.025462110984523945e-02,4.833916604858452121e-03,1.768389271917402902e-02,3.628349893248392685e-03,-1.510226116593824976e-02,9.324392427412986004e-03,-3.500045766466806235e-02,2.114079587959131687e-02,-1.158281002412090560e-02,6.217101061954885544e-02,-4.068062420727756347e-03,5.326280439631459612e-02,-9.360366125014030203e-02,-2.656812831451949367e-02,4.295028040815179748e-02,-8.329646584874071669e-02,-1.982968120759932493e-02,6.845831347272411660e-02,-7.410276552061872968e-02,2.482194682917521211e-03,1.385652908898453162e-01,-3.555330601505930777e-03,-3.142306795351373222e-02,2.715648662495272897e-02,-1.354040168245216821e-02,7.278525192182930259e-02,1.323136115092099774e-01,4.904958815477873657e-02,6.914678411532824975e-02,-2.430484405643713874e-02,2.511005714256136015e-02,-1.494758367052393400e-01,-1.162426831910755437e-01,-2.501777746410210196e-02,1.818698173874434831e-01,6.603481088653107012e-05,7.163746289083486318e-02,-4.806131782866144425e-02,-1.316046012645760016e-02,8.105667475522231047e-02
-6.245678846924730167e-03,-6.395994932620625156e-03,2.023073642589625406e-03,-5.361349405823024120e-03,7.188259550290874457e-05,1.438055374052494076e-02,-2.513354895236344366e-02,3.527951134372746267e-02,5.974657720945979319e-04,9.481826532416661596e-03,4.262654811435692692e-02,-1.595285183410985463e-02,-2.955277899735537020e-03,4.352961146781483479e-03,3.881709060847758803e-03,-4.060042813904125164e-02,2.684110183680451026e-02,4.113936955754732977e-02,-2.017041141177886715e-02,8.141571262613768456e-02,-6.323103740822411112e-02,-2.661164224832822736e-02,2.203426020027605264e-02,4.258379695542299781e-02,-3.964979948347525235e-02,1.670538736176097397e-02,9.104527142910867621e-02,2.129741931210532915e-02,5.722638075022856013e-02,2.593285064350552005e-02,2.706983116896308772e-01,-1.915095343751536255e-02,-2.830411987600454232e-03,-6.458179372069491886e-02,-9.278222000331445840e-02,-1.047777793370953670e-01,9.634001192977459382e-02,2.051080202222439058e-02,8.282574067784333194e-02,-9.343831535945942846e-02,1.835255205454326966e-01,9.965020980453076493e-02,4.590394649700585417e-02,-7.955293474344071747e-02,1.073106871419300667e-02,-1.412894656788757919e-01,1.246291344140696422e-01,7.591782871162865154e-02,-4.330388461313829096e-02,1.967616754021052350e-02
-9.234768876494169748e-04,2.504617599029175436e-03,-5.634758839210230082e-03,3.121511544804091154e-03,2.048073866411898383e-02,-1.465125146810746480e-02,-5.260171074627627112e-03,-4.300018286274858575e-02,7.041415814086973701e-03,4.805794977451680744e-03,-2.880732733408445517e-02,2.522273348724045697e-02,-6.465274063668034754e-02,1.718336710123198607e-02,3.152986624129050508e-02,-8.872954678349399826e-03,-4.492970313641048152e-02,-6.195300934587756082e-03,9.111110008418753931e-03,-5.500775727073441146e-02,-4.472629962172681994e-02,3.050448842390101126e-02,1.218565337606107091e-04,-2.384764465810467957e-02,1.239169581865041253e-01,6.093232393402112090e-02,-2.095756411290087065e-02,1.019498586031598042e-01,-3.147899721280239538e-02,1.483022369563687659e-01,-1.126092485873247118e-01,1.472571474532822222e-01,-9.772498383485093976e-02,7.727679540519477586e-02,-4.087812610594759866e-02,1.509572175775449332e-01,1.648229248046683970e-01,-2.062114997534683081e-01,4.489216624596700789e-02,1.006383447870974335e-01,-1.783875803291780637e-01,8.385413827141818821e-02,8.387589710426990308e-02,-1.606201717793313485e-02,3.331619617791825583e-02,-1.120368628469655889e-02,9.960113143157592330e-02,1.022160656533363243e-01,4.917225971367683579e-02,4.605425907796070750e-03
1.245449155585540580e-03,-8.973820912962207977e-03,9.063998626448901627e-03,8.012319074987901690e-03,2.739445215271574599e-02,-3.824194811918203620e-03,3.689598190883361384e-02,-1.975135304937739381e-03,-2.277307028225011507e-02,3.035905098741133526e-02,1.880294022202803200e-02,-4.244833063341788698e-02,-3.842745722768101113e-02,-2.759266104597588639e-03,-4.086232880861858513e-02,1.677911044612403644e-03,5.298076394400123325e-03,-5.340731611787117097e-03,-5.508971276915546750e-02,4.517193278937766537e-02,-2.621818066565619748e-02,-2.612955264149896192e-02,-1.086224209200009477e-01,-8.069056837979778074e-02,5.364280110546320278e-03,-5.099182695663284637e-02,8.371159735061825535e-02,-1.409963231439848308e-01,-3.653015330602044086e-02,6.008010904980792821e-02,-2.509802587499825044e-03,-6.694123218256882446e-02,8.172312110422935705e-02,1.043769054166642785e-01,-6.311416637751825209e-02,1.820228764643708197e-01,-4.722051587816852858e-02,8.884207771254332142e-02,-6.430420681382395531e-02,3.475266044473893090e-02,1.896775869069885490e-01,-3.208264070816399527e-02,-8.804959599931921899e-02,-7.307075196675863471e-02,6.888415943173328837e-02,1.932252436972254350e-01,3.061190930752338141e-02,-8.086640910110945435e-02,-6.240259377184964595e-02,5.151863865094275310e-03
-1.437451931668576018e-03,6.308798497314796992e-03,-1.069969915969254479e-03,1.423105079022887916e-02,2.892492108124518346e-02,-4.092557339787201119e-03,-6.895750735456975672e-03,-1.184723618694124084e-02,1.172674298112816142e-02,-1.895470291126873791e-02,-1.297145744793041199e-02,2.751076222977150848e-02,-2.785397854733707990e-02,-4.018970634952599014e-02,1.348500136851092136e-02,4.665173792649158352e-02,-3.152466085943111257e-02,-2.044609310380193085e-02,-2.728030782359654877e-02,-3.028170060648472522e-02,-3.107768576051775714e-02,3.415895562484799058e-02,-1.641752259621612892e-02,-3.671005343912600583e-02,-9.807842056189874924e-02,-3.541134750481224336e-02,7.943984397597599056e-02,4.707337766044987493e-02,-2.789832357789521697e-02,1.755849095300784923e-01,3.009966872143587241e-02,-2.340796539441633226e-02,1.829774759239732873e-02,5.237647954550050944e-02,-8.907786950154426842e-02,8.899762279337815329e-03,-1.141141474174347248e-01,1.219074841154532823e-01,-4.090840037188801098e-02,-7.171134602975763606e-02,-2.023072467606050473e-01,7.383008048979532167e-02,6.979380536075815988e-02,1.361473620411537966e-01,-1.296807249361983938e-01,1.784610062986911605e-01,-9.455921184640567190e-02,1.821679495558727324e-01,7.702979892462349931e-02,-1.179815161357277153e-01
5.282502697347803318e-03,-3.268231417529634478e-03,-8.481742189260930292e-03,8.932273398359353439e-04,7.382712739311450209e-03,-1.469836090564549322e-02,1.331395306061611099e-02,-8.142552690088728298e-03,-2.115900851494540227e-02,1.855673989080849906e-02,-4.308540132863322367e-03,-4.822923778278104950e-02,-2.738837239629117373e-03,2.772382234809742801e-02,3.378687426736857319e-02,-1.813626139128771825e-02,-4.026213885986029001e-02,2.980342319624386394e-02,-1.330392932138121757e-02,-5.022054597747078325e-02,-1.138152465482065168e-01,-3.239553041952460133e-02,1.034650238270580562e-04,-8.640470932507714197e-03,9.203172914662977044e-02,-4.455401549186677884e-02,8.104035405580860274e-02,-5.715379961950640270e-02,1.061907300928645326e-02,-2.371102065106910073e-02,1.816288762420437131e-02,3.872507470379265432e-02,4.097314028881354070e-02,1.025768855524791245e-01,-7.086488034518673151e-02,-7.509809699598760102e-02,1.222157495245936379e-02,-7.820898816044370705e-02,7.100408159102968020e-02,-2.949937797978489928e-02,1.373028749213024008e-02,-6.981160392606189369e-02,-8.321949434813835644e-02,5.106222703726158441e-02,2.462960063863115640e-02,-1.731172499693671429e-03,3.690804716372365901e-02,-1.468246420737080449e-01,-1.317963984143977751e-01,9.272331681441726980e-02
